{"learner":{"attributes":{"scikit_learn":"{\"_estimator_type\": \"classifier\"}"},"feature_names":["debt_to_equity","debt_to_assets","current_ratio","cash_ratio","net_profit_margin","return_on_assets","return_on_equity","free_cash_flow","operating_cf_ratio"],"feature_types":["float","float","float","float","float","float","float","float","float"],"gradient_booster":{"model":{"gbtree_model_param":{"num_parallel_tree":"1","num_trees":"900"},"iteration_indptr":[0,3,6,9,12,15,18,21,24,27,30,33,36,39,42,45,48,51,54,57,60,63,66,69,72,75,78,81,84,87,90,93,96,99,102,105,108,111,114,117,120,123,126,129,132,135,138,141,144,147,150,153,156,159,162,165,168,171,174,177,180,183,186,189,192,195,198,201,204,207,210,213,216,219,222,225,228,231,234,237,240,243,246,249,252,255,258,261,264,267,270,273,276,279,282,285,288,291,294,297,300,303,306,309,312,315,318,321,324,327,330,333,336,339,342,345,348,351,354,357,360,363,366,369,372,375,378,381,384,387,390,393,396,399,402,405,408,411,414,417,420,423,426,429,432,435,438,441,444,447,450,453,456,459,462,465,468,471,474,477,480,483,486,489,492,495,498,501,504,507,510,513,516,519,522,525,528,531,534,537,540,543,546,549,552,555,558,561,564,567,570,573,576,579,582,585,588,591,594,597,600,603,606,609,612,615,618,621,624,627,630,633,636,639,642,645,648,651,654,657,660,663,666,669,672,675,678,681,684,687,690,693,696,699,702,705,708,711,714,717,720,723,726,729,732,735,738,741,744,747,750,753,756,759,762,765,768,771,774,777,780,783,786,789,792,795,798,801,804,807,810,813,816,819,822,825,828,831,834,837,840,843,846,849,852,855,858,861,864,867,870,873,876,879,882,885,888,891,894,897,900],"tree_info":[0,1,2,0,1,2,0,1,2,0,1,2,0,1,2,0,1,2,0,1,2,0,1,2,0,1,2,0,1,2,0,1,2,0,1,2,0,1,2,0,1,2,0,1,2,0,1,2,0,1,2,0,1,2,0,1,2,0,1,2,0,1,2,0,1,2,0,1,2,0,1,2,0,1,2,0,1,2,0,1,2,0,1,2,0,1,2,0,1,2,0,1,2,0,1,2,0,1,2,0,1,2,0,1,2,0,1,2,0,1,2,0,1,2,0,1,2,0,1,2,0,1,2,0,1,2,0,1,2,0,1,2,0,1,2,0,1,2,0,1,2,0,1,2,0,1,2,0,1,2,0,1,2,0,1,2,0,1,2,0,1,2,0,1,2,0,1,2,0,1,2,0,1,2,0,1,2,0,1,2,0,1,2,0,1,2,0,1,2,0,1,2,0,1,2,0,1,2,0,1,2,0,1,2,0,1,2,0,1,2,0,1,2,0,1,2,0,1,2,0,1,2,0,1,2,0,1,2,0,1,2,0,1,2,0,1,2,0,1,2,0,1,2,0,1,2,0,1,2,0,1,2,0,1,2,0,1,2,0,1,2,0,1,2,0,1,2,0,1,2,0,1,2,0,1,2,0,1,2,0,1,2,0,1,2,0,1,2,0,1,2,0,1,2,0,1,2,0,1,2,0,1,2,0,1,2,0,1,2,0,1,2,0,1,2,0,1,2,0,1,2,0,1,2,0,1,2,0,1,2,0,1,2,0,1,2,0,1,2,0,1,2,0,1,2,0,1,2,0,1,2,0,1,2,0,1,2,0,1,2,0,1,2,0,1,2,0,1,2,0,1,2,0,1,2,0,1,2,0,1,2,0,1,2,0,1,2,0,1,2,0,1,2,0,1,2,0,1,2,0,1,2,0,1,2,0,1,2,0,1,2,0,1,2,0,1,2,0,1,2,0,1,2,0,1,2,0,1,2,0,1,2,0,1,2,0,1,2,0,1,2,0,1,2,0,1,2,0,1,2,0,1,2,0,1,2,0,1,2,0,1,2,0,1,2,0,1,2,0,1,2,0,1,2,0,1,2,0,1,2,0,1,2,0,1,2,0,1,2,0,1,2,0,1,2,0,1,2,0,1,2,0,1,2,0,1,2,0,1,2,0,1,2,0,1,2,0,1,2,0,1,2,0,1,2,0,1,2,0,1,2,0,1,2,0,1,2,0,1,2,0,1,2,0,1,2,0,1,2,0,1,2,0,1,2,0,1,2,0,1,2,0,1,2,0,1,2,0,1,2,0,1,2,0,1,2,0,1,2,0,1,2,0,1,2,0,1,2,0,1,2,0,1,2,0,1,2,0,1,2,0,1,2,0,1,2,0,1,2,0,1,2,0,1,2,0,1,2,0,1,2,0,1,2,0,1,2,0,1,2,0,1,2,0,1,2,0,1,2,0,1,2,0,1,2,0,1,2,0,1,2,0,1,2,0,1,2,0,1,2,0,1,2,0,1,2,0,1,2,0,1,2,0,1,2,0,1,2,0,1,2,0,1,2,0,1,2,0,1,2,0,1,2,0,1,2,0,1,2,0,1,2,0,1,2,0,1,2,0,1,2,0,1,2,0,1,2,0,1,2,0,1,2,0,1,2,0,1,2,0,1,2,0,1,2,0,1,2,0,1,2,0,1,2,0,1,2,0,1,2,0,1,2,0,1,2,0,1,2,0,1,2,0,1,2,0,1,2,0,1,2,0,1,2,0,1,2,0,1,2,0,1,2,0,1,2,0,1,2,0,1,2,0,1,2,0,1,2,0,1,2,0,1,2,0,1,2,0,1,2,0,1,2,0,1,2,0,1,2,0,1,2,0,1,2,0,1,2,0,1,2,0,1,2,0,1,2,0,1,2,0,1,2,0,1,2,0,1,2,0,1,2,0,1,2,0,1,2,0,1,2,0,1,2,0,1,2,0,1,2,0,1,2,0,1,2,0,1,2,0,1,2,0,1,2,0,1,2,0,1,2,0,1,2,0,1,2,0,1,2],"trees":[{"base_weights":[-7.956432E-3,-4.2163464E-1,1.1513907E0,-4.9456874E-1,6.7876196E-1,-4.3613156E-8,1.2343405E0,-6.71681E-1,-3.7316468E-1,-2.6896557E-1,8.426966E-1,-3.6263743E-1,9.4285715E-1,9.448815E-2,1.3258379E0,-3.4034505E-2,3E-2,-2.628699E-3,-2.0594142E-2,-2.7600003E-2,5.1724136E-2,2.0200571E-2,5.7917573E-2,2.6086956E-2,-3.1690147E-2,5.8064517E-2,-2.1428574E-2,-3.0952385E-2,3.80597E-2,6.792011E-2,1.4705881E-2],"categories":[],"categories_nodes":[],"categories_segments":[],"categories_sizes":[],"default_left":[0,0,0,0,0,0,0,0,0,0,0,0,0,0,0,0,0,0,0,0,0,0,0,0,0,0,0,0,0,0,0],"id":0,"left_children":[1,3,5,7,9,11,13,15,17,19,21,23,25,27,29,-1,-1,-1,-1,-1,-1,-1,-1,-1,-1,-1,-1,-1,-1,-1,-1],"loss_changes":[1.0854929E3,1.3421237E2,5.6848328E1,3.3400238E1,1.6401917E1,1.4360439E1,5.778064E1,7.685913E0,1.1531784E1,6.514758E0,1.1856117E1,7.604987E0,3.9926271E0,2.0609964E1,1.6865723E1,0E0,0E0,0E0,0E0,0E0,0E0,0E0,0E0,0E0,0E0,0E0,0E0,0E0,0E0,0E0,0E0],"parents":[2147483647,0,0,1,1,2,2,3,3,4,4,5,5,6,6,7,7,8,8,9,9,10,10,11,11,12,12,13,13,14,14],"right_children":[2,4,6,8,10,12,14,16,18,20,22,24,26,28,30,-1,-1,-1,-1,-1,-1,-1,-1,-1,-1,-1,-1,-1,-1,-1,-1],"split_conditions":[1.1701754E0,5.655291E-1,-2.3069899E2,5.805971E-1,-5.2987843E0,1.4350083E0,2.1869525E-1,5.0542E3,-1.8579984E0,-2.1656806E-2,9.3427837E-1,1.2661345E-1,-1.0453545E0,1.4026421E0,2.314109E2,-3.4034505E-2,3E-2,-2.628699E-3,-2.0594142E-2,-2.7600003E-2,5.1724136E-2,2.0200571E-2,5.7917573E-2,2.6086956E-2,-3.1690147E-2,5.8064517E-2,-2.1428574E-2,-3.0952385E-2,3.80597E-2,6.792011E-2,1.4705881E-2],"split_indices":[2,3,6,2,6,3,3,6,6,8,2,1,8,2,6,0,0,0,0,0,0,0,0,0,0,0,0,0,0,0,0],"split_type":[0,0,0,0,0,0,0,0,0,0,0,0,0,0,0,0,0,0,0,0,0,0,0,0,0,0,0,0,0,0,0],"sum_hessian":[2.2613333E3,1.667111E3,5.9422217E2,1.5639999E3,1.0311111E2,3.9999996E1,5.5422217E2,6.3422217E2,9.297777E2,1.5111111E1,8.799999E1,2.9333332E1,1.0666666E1,4.1333332E1,5.1288885E2,6.3022217E2,3.9999998E0,1.00444435E2,8.293333E2,1.2888888E1,2.222222E0,3.7777775E1,5.0222218E1,6.666666E0,2.2666666E1,9.333333E0,1.3333333E0,1.9999998E1,2.1333332E1,4.9688885E2,1.5999999E1],"tree_param":{"num_deleted":"0","num_feature":"9","num_nodes":"31","size_leaf_vector":"1"}},{"base_weights":[-8.98605E-3,1.5763196E-1,-5.5717E-1,-5.0613743E-1,3.728081E-1,-6.8564296E-1,-1.5298189E-1,2.8007177E-1,-6.3822013E-1,5.8562386E-1,-5.729407E-1,4.6153843E-1,-7.2230184E-1,3.3594184E-3,-6.5934074E-1,-1.4498144E-2,3.939394E-2,-3.329142E-2,1.1009173E-2,-3.1123921E-2,3.6554765E-2,-3.2930594E-2,7.594935E-3,-1.1538464E-2,5.6557376E-2,2.0689655E-2,-3.649583E-2,6.7839175E-3,-1.2786888E-2,-3.6166012E-2,5.1724124E-3],"categories":[],"categories_nodes":[],"categories_segments":[],"categories_sizes":[],"default_left":[0,0,0,0,0,0,0,0,0,0,0,0,0,0,0,0,0,0,0,0,0,0,0,0,0,0,0,0,0,0,0],"id":1,"left_children":[1,3,5,7,9,11,13,15,17,19,21,23,25,27,29,-1,-1,-1,-1,-1,-1,-1,-1,-1,-1,-1,-1,-1,-1,-1,-1],"loss_changes":[2.0676385E2,2.4815279E2,2.729538E1,4.435887E1,2.6433502E2,1.715979E1,1.0179289E1,1.814328E1,8.786224E0,1.8871643E2,1.5093224E1,6.287516E0,3.6596375E0,3.4363792E0,1.5551805E0,0E0,0E0,0E0,0E0,0E0,0E0,0E0,0E0,0E0,0E0,0E0,0E0,0E0,0E0,0E0,0E0],"parents":[2147483647,0,0,1,1,2,2,3,3,4,4,5,5,6,6,7,7,8,8,9,9,10,10,11,11,12,12,13,13,14,14],"right_children":[2,4,6,8,10,12,14,16,18,20,22,24,26,28,30,-1,-1,-1,-1,-1,-1,-1,-1,-1,-1,-1,-1,-1,-1,-1,-1],"split_conditions":[1.2564274E0,3.3307067E-1,8.927217E-1,-9.500392E-1,2.17575E0,6.649316E-2,1.4830256E0,5.909629E-2,3.088577E-1,-2.1024017E0,5.731183E-1,2.0063995E-1,-7.0029644E3,6.7376695E0,1.0305641E1,-1.4498144E-2,3.939394E-2,-3.329142E-2,1.1009173E-2,-3.1123921E-2,3.6554765E-2,-3.2930594E-2,7.594935E-3,-1.1538464E-2,5.6557376E-2,2.0689655E-2,-3.649583E-2,6.7839175E-3,-1.2786888E-2,-3.6166012E-2,5.1724124E-3],"split_indices":[2,2,0,0,0,3,3,3,3,0,3,0,4,0,0,0,0,0,0,0,0,0,0,0,0,0,0,0,0,0,0],"split_type":[0,0,0,0,0,0,0,0,0,0,0,0,0,0,0,0,0,0,0,0,0,0,0,0,0,0,0,0,0,0,0],"sum_hessian":[2.2617776E3,1.735111E3,5.266666E2,4.2444443E2,1.3106666E3,3.9911108E2,1.2755555E2,6.0888885E1,3.6355554E2,1.0702222E3,2.4044443E2,1.1999999E1,3.8711108E2,9.822221E1,2.9333332E1,2.8888887E1,3.1999998E1,3.5244443E2,1.1111111E1,1.1466666E2,9.555555E2,2.151111E2,2.5333332E1,6.222222E0,5.7777777E0,2.222222E0,3.8488885E2,6.533333E1,3.2888885E1,2.7111109E1,2.222222E0],"tree_param":{"num_deleted":"0","num_feature":"9","num_nodes":"31","size_leaf_vector":"1"}},{"base_weights":[1.4094803E-2,9.128448E-1,-3.513384E-1,-2.7988344E-1,1.1622008E0,-6.1647415E-1,6.5578634E-1,2.4489792E-1,-6.6331667E-1,1.3709424E0,7.721739E-1,-6.538144E-2,-6.7961264E-1,9.92873E-1,-3.0112928E-1,-2.296651E-2,4.2323653E-2,-1.6336637E-2,-3.59406E-2,7.003835E-2,-3.1132078E-2,2.522637E-3,6.727367E-2,-2.0181822E-2,3.3819627E-2,3.716814E-2,-3.473731E-2,2.0098729E-2,6.291262E-2,-3.2980975E-2,1.0810809E-2],"categories":[],"categories_nodes":[],"categories_segments":[],"categories_sizes":[],"default_left":[0,0,0,0,0,0,0,0,0,0,0,0,0,0,0,0,0,0,0,0,0,0,0,0,0,0,0,0,0,0,0],"id":2,"left_children":[1,3,5,7,9,11,13,15,17,19,21,23,25,27,29,-1,-1,-1,-1,-1,-1,-1,-1,-1,-1,-1,-1,-1,-1,-1,-1],"loss_changes":[7.4597314E2,1.9559418E2,4.315899E2,2.3168438E1,4.3167725E1,4.4450867E1,1.090029E2,2.1147469E1,1.0041695E0,2.1834412E1,7.923659E1,3.3532364E1,2.5221497E1,3.8610138E1,1.6566423E1,0E0,0E0,0E0,0E0,0E0,0E0,0E0,0E0,0E0,0E0,0E0,0E0,0E0,0E0,0E0,0E0],"parents":[2147483647,0,0,1,1,2,2,3,3,4,4,5,5,6,6,7,7,8,8,9,9,10,10,11,11,12,12,13,13,14,14],"right_children":[2,4,6,8,10,12,14,16,18,20,22,24,26,28,30,-1,-1,-1,-1,-1,-1,-1,-1,-1,-1,-1,-1,-1,-1,-1,-1],"split_conditions":[6.119104E-1,-9.8441553E-1,1.784886E0,2.783704E-1,3.1870574E-1,1.3491715E-1,1.4169093E0,-1.7620898E0,2.6872188E-2,5.4907227E-1,7.183585E-1,8.6755455E-1,-2.6324823E1,2.7796474E0,6.518955E0,-2.296651E-2,4.2323653E-2,-1.6336637E-2,-3.59406E-2,7.003835E-2,-3.1132078E-2,2.522637E-3,6.727367E-2,-2.0181822E-2,3.3819627E-2,3.716814E-2,-3.473731E-2,2.0098729E-2,6.291262E-2,-3.2980975E-2,1.0810809E-2],"split_indices":[2,0,0,2,2,3,2,0,3,3,0,0,5,0,0,0,0,0,0,0,0,0,0,0,0,0,0,0,0,0,0],"split_type":[0,0,0,0,0,0,0,0,0,0,0,0,0,0,0,0,0,0,0,0,0,0,0,0,0,0,0,0,0,0,0],"sum_hessian":[2.2693333E3,6.5555554E2,1.6137777E3,1.1333333E2,5.4222217E2,1.2777777E3,3.3599997E2,4.7999996E1,6.533333E1,3.5155554E2,1.9066666E2,1.3155554E2,1.1462222E3,2.4844443E2,8.755555E1,2.2222221E1,2.5777777E1,1.0222221E1,5.5111107E1,3.4666666E2,4.8888884E0,8.4888885E1,1.0577777E2,9.0666664E1,4.0888885E1,1.1555555E1,1.1346666E3,7.777777E1,1.7066666E2,5.1555553E1,3.5999996E1],"tree_param":{"num_deleted":"0","num_feature":"9","num_nodes":"31","size_leaf_vector":"1"}},{"base_weights":[-7.3722447E-3,-3.9547783E-1,1.0450971E0,1.0947231E0,-5.305713E-1,1.2232116E0,-2.2992948E-1,2.1019994E-1,1.4073424E0,-6.214269E-1,4.7912598E-1,1.600866E-1,1.301526E0,-5.2903086E-1,1.0193046E0,4.0725257E-2,-9.792165E-3,7.178768E-2,-6.1271614E-3,-7.783568E-3,-3.2329414E-2,5.001071E-2,-2.619725E-2,-2.8443238E-2,5.1276375E-2,6.554825E-2,-2.668011E-2,-3.325316E-2,2.9211491E-2,6.215139E-2,-3.3084422E-4],"categories":[],"categories_nodes":[],"categories_segments":[],"categories_sizes":[],"default_left":[0,0,0,0,0,0,0,0,0,0,0,0,0,0,0,0,0,0,0,0,0,0,0,0,0,0,0,0,0,0,0],"id":3,"left_children":[1,3,5,7,9,11,13,15,17,19,21,23,25,27,29,-1,-1,-1,-1,-1,-1,-1,-1,-1,-1,-1,-1,-1,-1,-1,-1],"loss_changes":[9.2880994E2,3.3501962E2,1.3940515E2,3.797699E1,1.4009067E2,4.4557556E1,2.8910488E1,9.316752E0,4.6133575E0,1.6288269E1,6.657377E1,2.4575424E1,9.371582E0,9.7658E0,3.4532719E0,0E0,0E0,0E0,0E0,0E0,0E0,0E0,0E0,0E0,0E0,0E0,0E0,0E0,0E0,0E0,0E0],"parents":[2147483647,0,0,1,1,2,2,3,3,4,4,5,5,6,6,7,7,8,8,9,9,10,10,11,11,12,12,13,13,14,14],"right_children":[2,4,6,8,10,12,14,16,18,20,22,24,26,28,30,-1,-1,-1,-1,-1,-1,-1,-1,-1,-1,-1,-1,-1,-1,-1,-1],"split_conditions":[1.1701754E0,-2.1024017E0,4.9548354E0,5.2137345E-1,4.7924015E-1,2.1869525E-1,1.4350083E0,-4.2891235E0,5.1306423E1,-1.1697872E0,1.2794791E0,1.5038248E0,2.1175696E2,2.4418032E0,1.0305641E1,4.0725257E-2,-9.792165E-3,7.178768E-2,-6.1271614E-3,-7.783568E-3,-3.2329414E-2,5.001071E-2,-2.619725E-2,-2.8443238E-2,5.1276375E-2,6.554825E-2,-2.668011E-2,-3.325316E-2,2.9211491E-2,6.215139E-2,-3.3084422E-4],"split_indices":[2,0,0,2,3,3,3,0,1,0,0,2,1,2,0,0,0,0,0,0,0,0,0,0,0,0,0,0,0,0,0],"split_type":[0,0,0,0,0,0,0,0,0,0,0,0,0,0,0,0,0,0,0,0,0,0,0,0,0,0,0,0,0,0,0],"sum_hessian":[2.271868E3,1.6602596E3,6.116084E2,1.374093E2,1.5228503E3,5.366779E2,7.4930466E1,3.6319496E1,1.01089806E2,1.397485E3,1.2536535E2,3.7030422E1,4.9964752E2,6.092084E1,1.4009628E1,1.4191958E1,2.2127537E1,9.930712E1,1.7826841E0,7.19949E1,1.3254901E3,8.25066E1,4.285875E1,2.0286236E1,1.6744186E1,4.973749E2,2.27261E0,5.464609E1,6.27475E0,1.1327759E1,2.6818695E0],"tree_param":{"num_deleted":"0","num_feature":"9","num_nodes":"31","size_leaf_vector":"1"}},{"base_weights":[-7.0658172E-3,1.7252068E-1,-5.25207E-1,3.538193E-1,-6.2341154E-1,-6.86759E-1,-2.919857E-1,-4.3607026E-1,5.934672E-1,-6.5893066E-1,-1.8009992E-1,2.2020733E-2,-6.923735E-1,-1.5439179E-2,-3.9237285E-1,8.171825E-3,-3.174958E-2,-3.1323448E-2,3.696386E-2,-3.571182E-2,-1.5631407E-2,2.972736E-2,-2.6203549E-2,-2.6879752E-2,-3.6543846E-2,1.1380891E-2,-2.1500222E-2,-3.389984E-2,-1.1685531E-2],"categories":[],"categories_nodes":[],"categories_segments":[],"categories_sizes":[],"default_left":[0,0,0,0,0,0,0,0,0,0,0,0,0,0,0,0,0,0,0,0,0,0,0,0,0,0,0,0,0],"id":4,"left_children":[1,3,5,7,9,11,13,15,17,19,21,-1,23,25,27,-1,-1,-1,-1,-1,-1,-1,-1,-1,-1,-1,-1,-1,-1],"loss_changes":[2.1128578E2,2.4354675E2,2.1819305E1,2.6035788E2,4.81295E0,2.4852753E0,6.681875E0,3.8314724E1,1.8805841E2,5.3230667E0,6.868739E0,0E0,1.6524353E0,6.6676393E0,7.8494053E0,0E0,0E0,0E0,0E0,0E0,0E0,0E0,0E0,0E0,0E0,0E0,0E0,0E0,0E0],"parents":[2147483647,0,0,1,1,2,2,3,3,4,4,5,5,6,6,7,7,8,8,9,9,10,10,12,12,13,13,14,14],"right_children":[2,4,6,8,10,12,14,16,18,20,22,-1,24,26,28,-1,-1,-1,-1,-1,-1,-1,-1,-1,-1,-1,-1,-1,-1],"split_conditions":[1.1844065E0,2.17575E0,3.982476E-1,3.1870574E-1,2.13771E8,-1.484E9,1.3478243E0,-8.2076925E-1,-2.1024017E0,8.8458E-1,2.7796474E0,2.2020733E-2,1.455985E0,-5.35E3,8.927217E-1,8.171825E-3,-3.174958E-2,-3.1323448E-2,3.696386E-2,-3.571182E-2,-1.5631407E-2,2.972736E-2,-2.6203549E-2,-2.6879752E-2,-3.6543846E-2,1.1380891E-2,-2.1500222E-2,-3.389984E-2,-1.1685531E-2],"split_indices":[2,0,0,2,7,7,2,0,0,2,0,0,2,7,0,0,0,0,0,0,0,0,0,0,0,0,0,0,0],"split_type":[0,0,0,0,0,0,0,0,0,0,0,0,0,0,0,0,0,0,0,0,0,0,0,0,0,0,0,0,0],"sum_hessian":[2.268667E3,1.6852355E3,5.834316E2,1.3730383E3,3.1219727E2,3.435266E2,2.3990495E2,3.1941458E2,1.0536237E3,2.885885E2,2.3608753E1,1.318804E0,3.422078E2,6.420016E1,1.757048E2,7.962378E1,2.3979079E2,1.1213521E2,9.414885E2,2.479306E2,4.0657898E1,7.0356016E0,1.6573153E1,7.115138E1,2.7105643E2,4.0756077E1,2.3444082E1,6.1578293E1,1.141265E2],"tree_param":{"num_deleted":"0","num_feature":"9","num_nodes":"29","size_leaf_vector":"1"}},{"base_weights":[1.7037634E-2,8.495522E-1,-3.450829E-1,-2.8858858E-1,1.0800064E0,-5.886503E-1,7.375102E-1,5.848775E-1,-5.2294326E-1,1.2666276E0,7.4399954E-1,-6.3658124E-1,1.0255511E0,1.1014991E0,-2.5858563E-1,-1.1588247E-2,5.7689536E-2,5.820592E-4,-3.3337966E-2,6.466333E-2,-3.0574039E-2,-4.89274E-3,6.053686E-2,-4.5735594E-3,-3.503981E-2,-2.2498572E-3,6.100337E-2,6.0343254E-2,-6.6949525E-3,-2.317876E-2,3.59838E-2],"categories":[],"categories_nodes":[],"categories_segments":[],"categories_sizes":[],"default_left":[0,0,0,0,0,0,0,0,0,0,0,0,0,0,0,0,0,0,0,0,0,0,0,0,0,0,0,0,0,0,0],"id":5,"left_children":[1,3,5,7,9,11,13,15,17,19,21,23,25,27,29,-1,-1,-1,-1,-1,-1,-1,-1,-1,-1,-1,-1,-1,-1,-1,-1],"loss_changes":[6.849886E2,1.8095956E2,4.1796484E2,2.4207443E1,3.498645E1,1.00706696E2,1.0588841E2,1.1962683E1,7.1263027E0,1.9149597E1,8.1462555E1,4.3918884E1,7.9002037E0,2.7953583E1,1.6127449E1,0E0,0E0,0E0,0E0,0E0,0E0,0E0,0E0,0E0,0E0,0E0,0E0,0E0,0E0,0E0,0E0],"parents":[2147483647,0,0,1,1,2,2,3,3,4,4,5,5,6,6,7,7,8,8,9,9,10,10,11,11,12,12,13,13,14,14],"right_children":[2,4,6,8,10,12,14,16,18,20,22,24,26,28,30,-1,-1,-1,-1,-1,-1,-1,-1,-1,-1,-1,-1,-1,-1,-1,-1],"split_conditions":[6.1914223E-1,-9.8441553E-1,2.17575E0,7.544187E-2,3.1870574E-1,3.0477676E1,6.493347E-1,-2.2503376E0,4.2193234E-2,5.4907227E-1,5.1353073E-1,1.4078943E-1,-2.1024017E0,1.8308467E0,9.609016E0,-1.1588247E-2,5.7689536E-2,5.820592E-4,-3.3337966E-2,6.466333E-2,-3.0574039E-2,-4.89274E-3,6.053686E-2,-4.5735594E-3,-3.503981E-2,-2.2498572E-3,6.100337E-2,6.0343254E-2,-6.6949525E-3,-2.317876E-2,3.59838E-2],"split_indices":[2,0,0,2,2,1,3,0,3,3,0,3,0,2,0,0,0,0,0,0,0,0,0,0,0,0,0,0,0,0,0],"split_type":[0,0,0,0,0,0,0,0,0,0,0,0,0,0,0,0,0,0,0,0,0,0,0,0,0,0,0,0,0,0,0],"sum_hessian":[2.2701843E3,6.877355E2,1.5824489E3,1.1576349E2,5.71972E2,1.2921831E3,2.9026578E2,2.4172855E1,9.159063E1,3.659502E2,2.0602179E2,1.2555085E3,3.6674534E1,2.1250671E2,7.7759056E1,1.0168776E1,1.4004079E1,1.9611395E1,7.197923E1,3.6113922E2,4.8109736E0,7.376403E1,1.3225775E2,1.3256967E2,1.122939E3,5.757264E0,3.091727E1,1.9582782E2,1.667889E1,6.4722855E1,1.3036208E1],"tree_param":{"num_deleted":"0","num_feature":"9","num_nodes":"31","size_leaf_vector":"1"}},{"base_weights":[5.3287446E-3,-3.800229E-1,1.0032427E0,1.0397866E0,-5.1454717E-1,1.1563318E0,-1.598505E-1,2.3304018E-1,1.3066E0,-5.646909E-1,1.3280361E0,8.9395636E-1,1.2685827E0,-5.294653E-1,5.9958506E-1,4.19993E-2,-1.3670775E-2,-6.7435415E-3,6.664767E-2,-3.2481674E-2,-2.1888672E-3,1.8949037E-2,7.287192E-2,5.037285E-2,4.1904324E-3,-7.404454E-3,6.378585E-2,2.3595733E-3,-2.9652536E-2,3.668076E-2,-2.5911262E-2],"categories":[],"categories_nodes":[],"categories_segments":[],"categories_sizes":[],"default_left":[0,0,0,0,0,0,0,0,0,0,0,0,0,0,0,0,0,0,0,0,0,0,0,0,0,0,0,0,0,0,0],"id":6,"left_children":[1,3,5,7,9,11,13,15,17,19,21,23,25,27,29,-1,-1,-1,-1,-1,-1,-1,-1,-1,-1,-1,-1,-1,-1,-1,-1],"loss_changes":[8.6596967E2,3.1082898E2,1.11887146E2,3.0031967E1,1.3792255E2,1.5196777E1,2.1046028E1,1.1370741E1,4.194763E0,6.395465E1,4.3147354E0,1.5504395E1,4.0898438E0,1.8687572E0,4.0723314E0,0E0,0E0,0E0,0E0,0E0,0E0,0E0,0E0,0E0,0E0,0E0,0E0,0E0,0E0,0E0,0E0],"parents":[2147483647,0,0,1,1,2,2,3,3,4,4,5,5,6,6,7,7,8,8,9,9,10,10,11,11,12,12,13,13,14,14],"right_children":[2,4,6,8,10,12,14,16,18,20,22,24,26,28,30,-1,-1,-1,-1,-1,-1,-1,-1,-1,-1,-1,-1,-1,-1,-1,-1],"split_conditions":[1.1701754E0,-2.1024017E0,4.9548354E0,5.2137345E-1,1.466E9,1.4641876E0,2.0333781E0,-4.063759E0,-6.839349E0,9.2618656E-1,4.8286927E-1,1.0878831E0,-1.484E9,-2.4062536E0,1.0759752E1,4.19993E-2,-1.3670775E-2,-6.7435415E-3,6.664767E-2,-3.2481674E-2,-2.1888672E-3,1.8949037E-2,7.287192E-2,5.037285E-2,4.1904324E-3,-7.404454E-3,6.378585E-2,2.3595733E-3,-2.9652536E-2,3.668076E-2,-2.5911262E-2],"split_indices":[2,0,0,2,7,2,2,0,5,2,2,0,7,8,0,0,0,0,0,0,0,0,0,0,0,0,0,0,0,0,0],"split_type":[0,0,0,0,0,0,0,0,0,0,0,0,0,0,0,0,0,0,0,0,0,0,0,0,0,0,0,0,0,0,0],"sum_hessian":[2.2499255E3,1.6235854E3,6.2634E2,1.3993546E2,1.48365E3,5.5349365E2,7.2846344E1,3.5243973E1,1.0469149E2,1.445019E3,3.8630924E1,1.6853157E2,3.849621E2,4.9202473E1,2.3643867E1,1.5731954E1,1.9512018E1,1.8057117E0,1.0288577E2,1.2422112E3,2.028079E2,5.106662E0,3.352426E1,1.4760829E2,2.0923275E1,1.8299471E0,3.8313214E2,4.912128E0,4.4290344E1,2.1419306E1,2.2245624E0],"tree_param":{"num_deleted":"0","num_feature":"9","num_nodes":"31","size_leaf_vector":"1"}},{"base_weights":[-5.216549E-3,1.2385901E-1,-5.266122E-1,2.887987E-1,-5.7500166E-1,-6.7303073E-1,-6.703361E-2,-1.8693401E-1,4.410443E-1,-6.179475E-1,-2.0316372E-2,2.3031352E-1,-6.840852E-1,4.000848E-1,-3.4355E-1,-1.287904E-3,-2.543295E-2,-2.630587E-2,2.6870424E-2,-1.4715708E-2,-3.2104995E-2,2.3576211E-2,-2.9480288E-2,-5.2071884E-3,2.2369502E-2,-2.5209025E-2,-3.5305273E-2,3.319716E-2,-3.2661464E-2,-6.2817144E-3,-3.193789E-2],"categories":[],"categories_nodes":[],"categories_segments":[],"categories_sizes":[],"default_left":[0,0,0,0,0,0,0,0,0,0,0,0,0,0,0,0,0,0,0,0,0,0,0,0,0,0,0,0,0,0,0],"id":7,"left_children":[1,3,5,7,9,11,13,15,17,19,21,23,25,27,29,-1,-1,-1,-1,-1,-1,-1,-1,-1,-1,-1,-1,-1,-1,-1,-1],"loss_changes":[1.5387949E2,2.1143327E2,3.0485756E1,1.0752993E2,8.332153E0,3.592514E0,1.4440686E1,1.8673092E1,1.0505266E2,2.3521118E0,7.6158957E0,4.0282592E-1,9.9121094E-1,1.2006069E1,4.429123E0,0E0,0E0,0E0,0E0,0E0,0E0,0E0,0E0,0E0,0E0,0E0,0E0,0E0,0E0,0E0,0E0],"parents":[2147483647,0,0,1,1,2,2,3,3,4,4,5,5,6,6,7,7,8,8,9,9,10,10,11,11,12,12,13,13,14,14],"right_children":[2,4,6,8,10,12,14,16,18,20,22,24,26,28,30,-1,-1,-1,-1,-1,-1,-1,-1,-1,-1,-1,-1,-1,-1,-1,-1],"split_conditions":[5.731183E-1,2.0278447E0,1.1351949E0,1.2933089E-1,2.33322E8,-1.7623119E3,8.599877E-1,2.2385256E0,-2.1024017E0,2.0783873E-1,4.0492854E0,-6.567549E6,6.493347E-1,7.8054748E0,1.5441536E0,-1.287904E-3,-2.543295E-2,-2.630587E-2,2.6870424E-2,-1.4715708E-2,-3.2104995E-2,2.3576211E-2,-2.9480288E-2,-5.2071884E-3,2.2369502E-2,-2.5209025E-2,-3.5305273E-2,3.319716E-2,-3.2661464E-2,-6.2817144E-3,-3.193789E-2],"split_indices":[3,0,0,3,7,4,3,1,0,1,0,7,3,0,3,0,0,0,0,0,0,0,0,0,0,0,0,0,0,0,0],"split_type":[0,0,0,0,0,0,0,0,0,0,0,0,0,0,0,0,0,0,0,0,0,0,0,0,0,0,0,0,0,0,0],"sum_hessian":[2.2845208E3,1.8318055E3,4.5271527E2,1.4825033E3,3.4930215E2,3.4297986E2,1.097354E2,3.5935944E2,1.1231439E3,3.240954E2,2.5206755E1,3.9066002E0,3.3907327E2,4.063832E1,6.909708E1,2.4013704E2,1.1922241E2,1.0136196E2,1.0217819E3,2.3422838E1,3.0067258E2,1.3615395E1,1.159136E1,1.742348E0,2.1642523E0,3.9582516E1,2.9949075E2,3.279319E1,7.8451314E0,4.057276E1,2.8524319E1],"tree_param":{"num_deleted":"0","num_feature":"9","num_nodes":"31","size_leaf_vector":"1"}},{"base_weights":[8.23291E-3,7.8756917E-1,-3.567381E-1,-2.8911537E-1,1.0001976E0,-5.913361E-1,6.200948E-1,2.329235E-1,-6.543997E-1,7.845228E-1,1.2578202E0,-6.369437E-1,1.0057721E0,9.900628E-1,-2.3004372E-1,-2.3568748E-2,3.6121737E-2,-3.4792494E-2,4.393916E-2,5.5601012E-2,-2.5799827E-5,6.4474665E-2,-3.1844735E-2,-5.9740148E-3,-3.471906E-2,2.8561498E-4,5.9203576E-2,5.5588026E-2,2.3838717E-3,-2.4860425E-2,2.5183398E-2],"categories":[],"categories_nodes":[],"categories_segments":[],"categories_sizes":[],"default_left":[0,0,0,0,0,0,0,0,0,0,0,0,0,0,0,0,0,0,0,0,0,0,0,0,0,0,0,0,0,0,0],"id":8,"left_children":[1,3,5,7,9,11,13,15,17,19,21,23,25,27,29,-1,-1,-1,-1,-1,-1,-1,-1,-1,-1,-1,-1,-1,-1,-1,-1],"loss_changes":[6.4619836E2,1.6617386E2,3.549463E2,2.308768E1,3.2646606E1,9.155673E1,9.4624176E1,1.7664988E1,5.1250534E0,8.539412E1,1.7275116E1,3.6002777E1,6.241394E0,2.395169E1,1.8248585E1,0E0,0E0,0E0,0E0,0E0,0E0,0E0,0E0,0E0,0E0,0E0,0E0,0E0,0E0,0E0,0E0],"parents":[2147483647,0,0,1,1,2,2,3,3,4,4,5,5,6,6,7,7,8,8,9,9,10,10,11,11,12,12,13,13,14,14],"right_children":[2,4,6,8,10,12,14,16,18,20,22,24,26,28,30,-1,-1,-1,-1,-1,-1,-1,-1,-1,-1,-1,-1,-1,-1,-1,-1],"split_conditions":[6.545281E-1,-9.8441553E-1,1.94498E0,2.783704E-1,7.027907E-1,3.0477676E1,5.4907227E-1,-1.8255582E0,2.7461538E1,3.1870574E-1,1.466E9,1.3491715E-1,-2.1024017E0,2.33322E8,7.952993E0,-2.3568748E-2,3.6121737E-2,-3.4792494E-2,4.393916E-2,5.5601012E-2,-2.5799827E-5,6.4474665E-2,-3.1844735E-2,-5.9740148E-3,-3.471906E-2,2.8561498E-4,5.9203576E-2,5.5588026E-2,2.3838717E-3,-2.4860425E-2,2.5183398E-2],"split_indices":[2,0,0,2,0,1,3,0,1,2,7,3,0,7,0,0,0,0,0,0,0,0,0,0,0,0,0,0,0,0,0],"split_type":[0,0,0,0,0,0,0,0,0,0,0,0,0,0,0,0,0,0,0,0,0,0,0,0,0,0,0,0,0,0,0],"sum_hessian":[2.2698777E3,7.235967E2,1.546281E3,1.1927342E2,6.0432324E2,1.2471564E3,2.9912473E2,4.9250458E1,7.0022964E1,3.3114368E2,2.7317957E2,1.2131154E3,3.404098E1,2.0830766E2,9.081707E1,2.0209913E1,2.9040545E1,6.8711464E1,1.3114989E0,2.3337097E2,9.777272E1,2.6900223E2,4.177343E0,1.2150842E2,1.0916069E3,5.306956E0,2.8734026E1,1.8432463E2,2.3983032E1,6.681149E1,2.4005579E1],"tree_param":{"num_deleted":"0","num_feature":"9","num_nodes":"31","size_leaf_vector":"1"}},{"base_weights":[-5.162678E-3,-3.7155214E-1,9.4515914E-1,9.777517E-1,-5.069521E-1,1.098994E0,-1.7105979E-1,2.4560934E-1,1.1869642E0,-5.9125817E-1,5.4307526E-1,3.7298158E-1,1.1685262E0,-5.425036E-1,1.057794E0,3.3018567E-2,-1.3393635E-2,6.0842734E-2,-2.3830933E-2,-3.3159077E-2,-2.111111E-2,5.175979E-2,-2.1370044E-2,-1.7801577E-2,4.4989154E-2,-2.3023585E-2,5.8697518E-2,3.4324203E-2,-3.0146796E-2,6.214988E-2,-9.9775465E-3],"categories":[],"categories_nodes":[],"categories_segments":[],"categories_sizes":[],"default_left":[0,0,0,0,0,0,0,0,0,0,0,0,0,0,0,0,0,0,0,0,0,0,0,0,0,0,0,0,0,0,0],"id":9,"left_children":[1,3,5,7,9,11,13,15,17,19,21,23,25,27,29,-1,-1,-1,-1,-1,-1,-1,-1,-1,-1,-1,-1,-1,-1,-1,-1],"loss_changes":[7.875367E2,2.9873358E2,1.0826044E2,2.2563995E1,1.3170941E2,2.7494324E1,3.5765423E1,7.508068E0,6.3376923E0,1.642926E1,5.337455E1,1.9455963E1,4.9978027E0,4.8600483E0,4.494154E0,0E0,0E0,0E0,0E0,0E0,0E0,0E0,0E0,0E0,0E0,0E0,0E0,0E0,0E0,0E0,0E0],"parents":[2147483647,0,0,1,1,2,2,3,3,4,4,5,5,6,6,7,7,8,8,9,9,10,10,11,11,12,12,13,13,14,14],"right_children":[2,4,6,8,10,12,14,16,18,20,22,24,26,28,30,-1,-1,-1,-1,-1,-1,-1,-1,-1,-1,-1,-1,-1,-1,-1,-1],"split_conditions":[1.1844065E0,-1.9604858E0,4.9548354E0,5.2137345E-1,5.3053945E-1,2.7735496E-1,1.4830256E0,-4.063759E0,5.1306423E1,7.841287E-2,1.2794791E0,1.4389573E0,-7.2384143E2,6.608617E-2,1.0759752E1,3.3018567E-2,-1.3393635E-2,6.0842734E-2,-2.3830933E-2,-3.3159077E-2,-2.111111E-2,5.175979E-2,-2.1370044E-2,-1.7801577E-2,4.4989154E-2,-2.3023585E-2,5.8697518E-2,3.4324203E-2,-3.0146796E-2,6.214988E-2,-9.9775465E-3],"split_indices":[2,0,0,2,3,3,3,0,1,8,0,2,5,1,0,0,0,0,0,0,0,0,0,0,0,0,0,0,0,0,0],"split_type":[0,0,0,0,0,0,0,0,0,0,0,0,0,0,0,0,0,0,0,0,0,0,0,0,0,0,0,0,0,0,0],"sum_hessian":[2.2598066E3,1.63143E3,6.283766E2,1.4821355E2,1.4832164E3,5.522782E2,7.609838E1,3.3423046E1,1.14790504E2,1.3733851E3,1.0983139E2,4.8826458E1,5.0345175E2,5.8864136E1,1.7234247E1,1.8330574E1,1.5092474E1,1.130282E2,1.7623063E0,9.6139594E2,4.1198917E2,7.283212E1,3.6999268E1,2.0618187E1,2.8208271E1,1.3923802E0,5.020594E2,2.2733045E0,5.659083E1,1.503155E1,2.2026958E0],"tree_param":{"num_deleted":"0","num_feature":"9","num_nodes":"31","size_leaf_vector":"1"}},{"base_weights":[-1.2722135E-2,1.4049487E-1,-5.426061E-1,-4.549786E-1,3.4173587E-1,-6.6326445E-1,-1.6817994E-1,2.8576702E-1,-5.862312E-1,5.181437E-1,-5.253472E-1,3.6425617E-1,-6.936066E-1,9.347184E-2,-4.8433748E-1,-8.304361E-3,3.6475524E-2,-3.3312E-2,-1.8893855E-2,-2.6147082E-2,3.2277565E-2,-3.0818379E-2,4.6440382E-5,-9.885229E-3,5.0804883E-2,1.9264196E-3,-3.5073992E-2,1.8792547E-2,-1.9587187E-2,-3.5132974E-2,-9.507496E-3],"categories":[],"categories_nodes":[],"categories_segments":[],"categories_sizes":[],"default_left":[0,0,0,0,0,0,0,0,0,0,0,0,0,0,0,0,0,0,0,0,0,0,0,0,0,0,0,0,0,0,0],"id":10,"left_children":[1,3,5,7,9,11,13,15,17,19,21,23,25,27,29,-1,-1,-1,-1,-1,-1,-1,-1,-1,-1,-1,-1,-1,-1,-1,-1],"loss_changes":[1.8142677E2,2.0788821E2,2.2532532E1,4.2780533E1,1.985416E2,1.20603485E1,1.02611065E1,1.3483765E1,5.960373E0,1.43271E2,1.0521206E1,4.420244E0,2.1494904E0,9.520423E0,3.4685402E0,0E0,0E0,0E0,0E0,0E0,0E0,0E0,0E0,0E0,0E0,0E0,0E0,0E0,0E0,0E0,0E0],"parents":[2147483647,0,0,1,1,2,2,3,3,4,4,5,5,6,6,7,7,8,8,9,9,10,10,11,11,12,12,13,13,14,14],"right_children":[2,4,6,8,10,12,14,16,18,20,22,24,26,28,30,-1,-1,-1,-1,-1,-1,-1,-1,-1,-1,-1,-1,-1,-1,-1,-1],"split_conditions":[1.271577E0,3.765287E-1,8.927217E-1,-9.500392E-1,2.17575E0,5.909629E-2,8.599877E-1,8.030145E-2,1.9781947E-1,-1.8255582E0,4.7924015E-1,1.8569563E-1,-1.7623119E3,6.256923E0,5.594983E0,-8.304361E-3,3.6475524E-2,-3.3312E-2,-1.8893855E-2,-2.6147082E-2,3.2277565E-2,-3.0818379E-2,4.6440382E-5,-9.885229E-3,5.0804883E-2,1.9264196E-3,-3.5073992E-2,1.8792547E-2,-1.9587187E-2,-3.5132974E-2,-9.507496E-3],"split_indices":[2,2,0,0,0,3,3,3,2,0,3,0,4,0,0,0,0,0,0,0,0,0,0,0,0,0,0,0,0,0,0],"split_type":[0,0,0,0,0,0,0,0,0,0,0,0,0,0,0,0,0,0,0,0,0,0,0,0,0,0,0,0,0,0,0],"sum_hessian":[2.2327322E3,1.7325088E3,5.0022348E2,4.3729355E2,1.2952152E3,3.7772925E2,1.2249422E2,6.564394E1,3.716496E2,1.0765864E3,2.186288E2,1.0518563E1,3.672107E2,6.741005E1,5.5084167E1,3.283475E1,3.2809196E1,2.669443E2,1.04705284E2,1.17048E2,9.595384E2,1.86246E2,3.2382786E1,6.0228696E0,4.495693E0,3.8654802E0,3.633452E2,4.2754036E1,2.4656015E1,3.082207E1,2.4262098E1],"tree_param":{"num_deleted":"0","num_feature":"9","num_nodes":"31","size_leaf_vector":"1"}},{"base_weights":[1.3324832E-2,7.692359E-1,-3.287469E-1,1.0814155E0,4.7827873E-1,-4.9378204E-1,3.8911037E-3,1.1078023E0,-3.2694906E-2,8.898603E-1,1.531711E-1,2.9596764E-1,-5.5916214E-1,-7.830103E-2,1.173144E0,5.6519754E-2,-2.9822847E-2,5.364666E-2,-1.6761063E-2,-8.683635E-3,2.8215054E-2,4.4000786E-2,-1.690141E-2,-3.0564222E-2,4.6311747E-3,2.2724694E-2,-8.932341E-3,6.2671505E-2,-2.1679992E-2],"categories":[],"categories_nodes":[],"categories_segments":[],"categories_sizes":[],"default_left":[0,0,0,0,0,0,0,0,0,0,0,0,0,0,0,0,0,0,0,0,0,0,0,0,0,0,0,0,0],"id":11,"left_children":[1,3,5,7,9,11,13,15,-1,17,19,21,23,25,27,-1,-1,-1,-1,-1,-1,-1,-1,-1,-1,-1,-1,-1,-1],"loss_changes":[5.7796906E2,6.273401E1,8.448074E1,1.6069977E1,4.833246E1,5.3274155E1,4.9229477E1,1.3399353E1,0E0,3.6164833E1,2.7454117E1,2.9658758E1,3.233969E1,2.5671919E1,4.8834763E0,0E0,0E0,0E0,0E0,0E0,0E0,0E0,0E0,0E0,0E0,0E0,0E0,0E0,0E0],"parents":[2147483647,0,0,1,1,2,2,3,3,4,4,5,5,6,6,7,7,9,9,10,10,11,11,12,12,13,13,14,14],"right_children":[2,4,6,8,10,12,14,16,-1,18,20,22,24,26,28,-1,-1,-1,-1,-1,-1,-1,-1,-1,-1,-1,-1,-1,-1],"split_conditions":[6.1914223E-1,1.9781947E-1,7.357027E-1,2.13771E8,-1.2878867E-2,-4.6867264E1,5.1306423E1,5.4907227E-1,-3.2694906E-2,-1.5891697E-4,-3.053717E-3,6.1293745E-1,5.6298156E0,1.3491715E-1,3.006E9,5.6519754E-2,-2.9822847E-2,5.364666E-2,-1.6761063E-2,-8.683635E-3,2.8215054E-2,4.4000786E-2,-1.690141E-2,-3.0564222E-2,4.6311747E-3,2.2724694E-2,-8.932341E-3,6.2671505E-2,-2.1679992E-2],"split_indices":[2,2,1,7,6,6,1,3,0,5,5,3,6,3,7,0,0,0,0,0,0,0,0,0,0,0,0,0,0],"split_type":[0,0,0,0,0,0,0,0,0,0,0,0,0,0,0,0,0,0,0,0,0,0,0,0,0,0,0,0,0],"sum_hessian":[2.2332236E3,6.95362E2,1.5378616E3,3.341366E2,3.6122537E2,1.0275621E3,5.1029947E2,3.2948813E2,4.648483E0,1.5864543E2,2.0257996E2,7.829397E1,9.492682E2,4.7765588E2,3.2643585E1,3.2550967E2,3.9784532E0,1.3812813E2,2.0517303E1,1.13180374E2,8.9399574E1,4.0550285E1,3.774368E1,8.7903516E2,7.0233E1,7.514382E1,4.025121E2,3.1299501E1,1.3440838E0],"tree_param":{"num_deleted":"0","num_feature":"9","num_nodes":"29","size_leaf_vector":"1"}},{"base_weights":[-8.0556115E-3,-4.019227E-1,8.107654E-1,9.3127507E-1,-5.297764E-1,1.036055E0,1.3673945E-1,-1.0086241E-1,1.1159217E0,-5.934093E-1,1.1912295E0,1.0816042E-1,1.1218421E0,-1.5523812E-1,9.9948686E-1,3.5978418E-2,-2.1942705E-2,-9.28392E-3,5.698948E-2,-3.256413E-2,2.3284381E-2,6.466534E-2,-2.5569865E-2,-2.3799593E-2,4.7990378E-2,-1.7857177E-2,5.65556E-2,1.150754E-2,-3.1139359E-2,5.5883776E-2,-1.7627072E-2],"categories":[],"categories_nodes":[],"categories_segments":[],"categories_sizes":[],"default_left":[0,0,0,0,0,0,0,0,0,0,0,0,0,0,0,0,0,0,0,0,0,0,0,0,0,0,0,0,0,0,0],"id":12,"left_children":[1,3,5,7,9,11,13,15,17,19,21,23,25,27,29,-1,-1,-1,-1,-1,-1,-1,-1,-1,-1,-1,-1,-1,-1,-1,-1],"loss_changes":[7.222239E2,2.5823047E2,1.1030524E2,2.5398811E1,1.5187598E2,4.3259644E1,4.6343803E1,6.153274E0,3.7106018E0,8.193564E1,9.273369E0,2.3952286E1,7.2418213E0,2.4984325E1,7.824085E0,0E0,0E0,0E0,0E0,0E0,0E0,0E0,0E0,0E0,0E0,0E0,0E0,0E0,0E0,0E0,0E0],"parents":[2147483647,0,0,1,1,2,2,3,3,4,4,5,5,6,6,7,7,8,8,9,9,10,10,11,11,12,12,13,13,14,14],"right_children":[2,4,6,8,10,12,14,16,18,20,22,24,26,28,30,-1,-1,-1,-1,-1,-1,-1,-1,-1,-1,-1,-1,-1,-1,-1,-1],"split_conditions":[1.0586003E0,-2.1024017E0,8.723934E-1,2.9694453E-1,1.192817E9,2.2625045E-1,1.2325046E0,-5.7739234E0,-2.01683E8,5.655291E-1,6.256923E0,1.4169093E0,-7.0029644E3,4.80333E0,1.0759752E1,3.5978418E-2,-2.1942705E-2,-9.28392E-3,5.698948E-2,-3.256413E-2,2.3284381E-2,6.466534E-2,-2.5569865E-2,-2.3799593E-2,4.7990378E-2,-1.7857177E-2,5.65556E-2,1.150754E-2,-3.1139359E-2,5.5883776E-2,-1.7627072E-2],"split_indices":[2,0,0,2,7,3,3,0,7,3,0,2,4,0,0,0,0,0,0,0,0,0,0,0,0,0,0,0,0,0,0],"split_type":[0,0,0,0,0,0,0,0,0,0,0,0,0,0,0,0,0,0,0,0,0,0,0,0,0,0,0,0,0,0,0],"sum_hessian":[2.2373972E3,1.5110602E3,7.2633704E2,1.3167998E2,1.3793802E3,5.439781E2,1.8235893E2,2.005126E1,1.11628716E2,1.330829E3,4.8551216E1,4.622778E1,4.977503E2,1.3686133E2,4.5497593E1,5.5209417E0,1.4530318E1,1.8880358E0,1.0974068E2,1.2622402E3,6.858877E1,4.603188E1,2.5193355E0,2.768173E1,1.854605E1,2.866583E0,4.9488373E2,7.530065E1,6.156068E1,4.1999504E1,3.4980888E0],"tree_param":{"num_deleted":"0","num_feature":"9","num_nodes":"31","size_leaf_vector":"1"}},{"base_weights":[1.0227392E-3,1.6171001E-1,-4.885096E-1,3.2330173E-1,-5.917272E-1,2.5398615E-1,-5.5099833E-1,-4.0614116E-1,5.2736396E-1,-6.454311E-1,1.9303194E-1,7.0235276E-1,-3.307441E-1,-6.461237E-1,-6.659532E-2,1.0611315E-2,-3.0512154E-2,-2.7692227E-2,3.2363188E-2,-3.4623187E-2,-8.472662E-3,5.0820418E-2,-2.508354E-2,5.294285E-2,-2.3241898E-2,3.1708878E-2,-2.2941388E-2,-2.4447536E-2,-3.4942884E-2,3.0272352E-3,-3.027608E-2],"categories":[],"categories_nodes":[],"categories_segments":[],"categories_sizes":[],"default_left":[0,0,0,0,0,0,0,0,0,0,0,0,0,0,0,0,0,0,0,0,0,0,0,0,0,0,0,0,0,0,0],"id":13,"left_children":[1,3,5,7,9,11,13,15,17,19,21,23,25,27,29,-1,-1,-1,-1,-1,-1,-1,-1,-1,-1,-1,-1,-1,-1,-1,-1],"loss_changes":[1.771267E2,2.0659023E2,2.5958893E1,2.0809222E2,1.2756821E1,1.1736954E1,2.3622696E1,3.873039E1,1.4188248E2,6.1680527E0,1.1931601E1,1.09602995E1,2.7287645E0,3.2154236E0,5.8893557E0,0E0,0E0,0E0,0E0,0E0,0E0,0E0,0E0,0E0,0E0,0E0,0E0,0E0,0E0,0E0,0E0],"parents":[2147483647,0,0,1,1,2,2,3,3,4,4,5,5,6,6,7,7,8,8,9,9,10,10,11,11,12,12,13,13,14,14],"right_children":[2,4,6,8,10,12,14,16,18,20,22,24,26,28,30,-1,-1,-1,-1,-1,-1,-1,-1,-1,-1,-1,-1,-1,-1,-1,-1],"split_conditions":[1.1701754E0,2.17575E0,2.1869525E-1,3.1870574E-1,5.4907227E-1,1.5038248E0,3.0443602E0,-8.2076925E-1,-2.1024017E0,1.2E8,4.80333E0,2.9293904E0,-3.04E8,3.4514707E-1,1.5441536E0,1.0611315E-2,-3.0512154E-2,-2.7692227E-2,3.2363188E-2,-3.4623187E-2,-8.472662E-3,5.0820418E-2,-2.508354E-2,5.294285E-2,-2.3241898E-2,3.1708878E-2,-2.2941388E-2,-2.4447536E-2,-3.4942884E-2,3.0272352E-3,-3.027608E-2],"split_indices":[2,0,3,2,3,2,0,0,0,7,0,0,7,3,3,0,0,0,0,0,0,0,0,0,0,0,0,0,0,0,0],"split_type":[0,0,0,0,0,0,0,0,0,0,0,0,0,0,0,0,0,0,0,0,0,0,0,0,0,0,0,0,0,0,0],"sum_hessian":[2.249751E3,1.6942794E3,5.554716E2,1.3955442E3,2.9873526E2,4.288183E1,5.125898E2,3.048465E2,1.0906976E3,2.797673E2,1.8967941E1,2.4157154E1,1.8724676E1,4.281728E2,8.4416985E1,7.564006E1,2.2920645E2,1.0851681E2,9.8218085E2,2.5419482E2,2.557249E1,8.468184E0,1.0499756E1,1.857612E1,5.581033E0,1.7312186E0,1.6993458E1,1.1014838E2,3.180244E2,6.902152E1,1.5395458E1],"tree_param":{"num_deleted":"0","num_feature":"9","num_nodes":"31","size_leaf_vector":"1"}},{"base_weights":[1.040978E-3,7.412398E-1,-3.3740863E-1,1.0514057E0,4.4920406E-1,-3.6870083E-1,1.0450957E0,1.0789922E0,-3.2883536E-2,7.3095345E-1,-9.2178496E-4,3.5578778E-1,-4.262106E-1,1.1430707E0,-2.4225237E-2,5.50565E-2,1.29817175E-2,5.0261434E-2,6.886203E-3,-1.4491439E-2,4.15949E-2,3.230841E-2,-2.3777258E-2,-2.5350055E-2,6.930904E-3,6.092555E-2,-5.773915E-3],"categories":[],"categories_nodes":[],"categories_segments":[],"categories_sizes":[],"default_left":[0,0,0,0,0,0,0,0,0,0,0,0,0,0,0,0,0,0,0,0,0,0,0,0,0,0,0],"id":14,"left_children":[1,3,5,7,9,11,13,15,-1,17,19,21,23,25,-1,-1,-1,-1,-1,-1,-1,-1,-1,-1,-1,-1,-1],"loss_changes":[5.6615546E2,6.375763E1,6.747649E1,1.688733E1,4.654077E1,6.3367615E1,5.7369537E0,5.8461E0,0E0,3.6584625E1,3.4472527E1,2.7374775E1,6.423508E1,3.2550735E0,0E0,0E0,0E0,0E0,0E0,0E0,0E0,0E0,0E0,0E0,0E0,0E0,0E0],"parents":[2147483647,0,0,1,1,2,2,3,3,4,4,5,5,6,6,7,7,9,9,10,10,11,11,12,12,13,13],"right_children":[2,4,6,8,10,12,14,16,-1,18,20,22,24,26,-1,-1,-1,-1,-1,-1,-1,-1,-1,-1,-1,-1,-1],"split_conditions":[6.1914223E-1,1.9781947E-1,5.1306423E1,2.13771E8,7.149496E-2,-4.6867264E1,1.2564274E0,1.1199481E1,-3.2883536E-2,-1.5891697E-4,-9.6711144E-4,1.7212635E0,1E0,6.156E8,-2.4225237E-2,5.50565E-2,1.29817175E-2,5.0261434E-2,6.886203E-3,-1.4491439E-2,4.15949E-2,3.230841E-2,-2.3777258E-2,-2.5350055E-2,6.930904E-3,6.092555E-2,-5.773915E-3],"split_indices":[2,2,1,7,6,6,2,6,0,5,4,2,6,7,0,0,0,0,0,0,0,0,0,0,0,0,0],"split_type":[0,0,0,0,0,0,0,0,0,0,0,0,0,0,0,0,0,0,0,0,0,0,0,0,0,0,0],"sum_hessian":[2.2579229E3,7.080994E2,1.5498235E3,3.4212955E2,3.6596985E2,1.5162375E3,3.3585888E1,3.3705768E2,5.07186E0,2.2469904E2,1.4127081E2,1.1112582E2,1.4051118E3,3.180161E1,1.7842783E0,3.2785565E2,9.202022E0,1.5318199E2,7.151705E1,1.053698E2,3.590102E1,8.25235E1,2.8602318E1,1.2293707E3,1.7574104E2,3.0033165E1,1.7684456E0],"tree_param":{"num_deleted":"0","num_feature":"9","num_nodes":"27","size_leaf_vector":"1"}},{"base_weights":[-7.4187242E-3,-3.8657084E-1,7.8027797E-1,7.841034E-1,-5.3519845E-1,9.7739834E-1,1.14909574E-1,9.3673274E-2,1.027203E0,-6.0448396E-1,8.6784345E-1,6.254272E-1,1.0907365E0,-2.6370323E-1,7.074376E-1,2.391819E-2,-2.8773451E-2,-1.4032413E-2,5.289195E-2,-3.2180045E-2,-7.5003407E-3,1.1471709E-2,6.271319E-2,5.192695E-2,1.8687798E-2,-2.0743256E-2,5.519265E-2,9.5001346E-4,-2.9971942E-2,4.934068E-2,8.916292E-3],"categories":[],"categories_nodes":[],"categories_segments":[],"categories_sizes":[],"default_left":[0,0,0,0,0,0,0,0,0,0,0,0,0,0,0,0,0,0,0,0,0,0,0,0,0,0,0,0,0,0,0],"id":15,"left_children":[1,3,5,7,9,11,13,15,17,19,21,23,25,27,29,-1,-1,-1,-1,-1,-1,-1,-1,-1,-1,-1,-1,-1,-1,-1,-1],"loss_changes":[6.643392E2,2.6169214E2,9.468848E1,2.8365273E1,1.301101E2,2.1556396E1,3.750035E1,1.1925365E1,5.317856E0,2.2497162E1,1.5288864E1,1.3973099E1,8.75885E0,9.712621E0,9.449673E0,0E0,0E0,0E0,0E0,0E0,0E0,0E0,0E0,0E0,0E0,0E0,0E0,0E0,0E0,0E0,0E0],"parents":[2147483647,0,0,1,1,2,2,3,3,4,4,5,5,6,6,7,7,8,8,9,9,10,10,11,11,12,12,13,13,14,14],"right_children":[2,4,6,8,10,12,14,16,18,20,22,24,26,28,30,-1,-1,-1,-1,-1,-1,-1,-1,-1,-1,-1,-1,-1,-1,-1,-1],"split_conditions":[1.0586003E0,-1.6381739E0,1.0060612E0,5.2137345E-1,7.05959E8,1.3134345E0,1.7412742E0,-2.6280982E0,-6.839349E0,9.431494E-1,1.466E9,2.3328257E-1,-7.0029644E3,4.9548354E0,6.256923E0,2.391819E-2,-2.8773451E-2,-1.4032413E-2,5.289195E-2,-3.2180045E-2,-7.5003407E-3,1.1471709E-2,6.271319E-2,5.192695E-2,1.8687798E-2,-2.0743256E-2,5.519265E-2,9.5001346E-4,-2.9971942E-2,4.934068E-2,8.916292E-3],"split_indices":[2,0,0,2,7,2,2,0,5,2,7,0,4,0,0,0,0,0,0,0,0,0,0,0,0,0,0,0,0,0,0],"split_type":[0,0,0,0,0,0,0,0,0,0,0,0,0,0,0,0,0,0,0,0,0,0,0,0,0,0,0,0,0,0,0],"sum_hessian":[2.222413E3,1.500613E3,7.2180005E2,1.6857182E2,1.3320413E3,5.5647205E2,1.6532797E2,4.425838E1,1.2431343E2,1.2698998E3,6.214145E1,1.3713097E2,4.193411E2,1.0121115E2,6.411682E1,2.8283361E1,1.597502E1,2.6585627E0,1.2165487E2,1.1688782E3,1.0102166E2,2.4031872E1,3.8109577E1,5.07309E1,8.640006E1,3.3571117E0,4.15984E2,5.5457233E1,4.5753918E1,4.1394886E1,2.2721937E1],"tree_param":{"num_deleted":"0","num_feature":"9","num_nodes":"31","size_leaf_vector":"1"}},{"base_weights":[-9.986485E-3,1.2714213E-1,-5.061817E-1,2.7296492E-1,-5.744559E-1,-6.3104284E-1,-1.3445216E-1,-4.277632E-1,4.5657182E-1,-6.308467E-1,2.3086809E-2,3.2853603E-1,-6.7205894E-1,6.692653E-2,-4.7566882E-1,3.900318E-3,-3.011075E-2,-2.6049322E-2,2.7982373E-2,-3.386636E-2,-7.2740945E-3,3.8934976E-2,-2.2975776E-2,4.7448106E-2,-1.4176537E-2,-6.532418E-5,-3.4013256E-2,1.169481E-2,-1.5071074E-2,-3.1725314E-2,1.35455895E-2],"categories":[],"categories_nodes":[],"categories_segments":[],"categories_sizes":[],"default_left":[0,0,0,0,0,0,0,0,0,0,0,0,0,0,0,0,0,0,0,0,0,0,0,0,0,0,0,0,0,0,0],"id":16,"left_children":[1,3,5,7,9,11,13,15,17,19,21,23,25,27,29,-1,-1,-1,-1,-1,-1,-1,-1,-1,-1,-1,-1,-1,-1,-1,-1],"loss_changes":[1.521227E2,1.7936931E2,2.238324E1,1.8686995E2,1.018222E1,1.4472E1,8.482582E0,2.6672043E1,1.16185486E2,6.122673E0,1.0198324E1,6.1605096E0,1.9122772E0,4.8810706E0,5.5992785E0,0E0,0E0,0E0,0E0,0E0,0E0,0E0,0E0,0E0,0E0,0E0,0E0,0E0,0E0,0E0,0E0],"parents":[2147483647,0,0,1,1,2,2,3,3,4,4,5,5,6,6,7,7,8,8,9,9,10,10,11,11,12,12,13,13,14,14],"right_children":[2,4,6,8,10,12,14,16,18,20,22,24,26,28,30,-1,-1,-1,-1,-1,-1,-1,-1,-1,-1,-1,-1,-1,-1,-1,-1],"split_conditions":[1.2564274E0,2.17575E0,8.927217E-1,3.1870574E-1,5.4907227E-1,1.4078943E-1,1.0986267E0,-8.2076925E-1,-1.9604858E0,1.98303E8,4.80333E0,1.5038248E0,-1.7623119E3,6.7376695E0,8.484065E0,3.900318E-3,-3.011075E-2,-2.6049322E-2,2.7982373E-2,-3.386636E-2,-7.2740945E-3,3.8934976E-2,-2.2975776E-2,4.7448106E-2,-1.4176537E-2,-6.532418E-5,-3.4013256E-2,1.169481E-2,-1.5071074E-2,-3.1725314E-2,1.35455895E-2],"split_indices":[2,0,0,2,3,3,3,0,0,7,0,2,4,0,0,0,0,0,0,0,0,0,0,0,0,0,0,0,0,0,0],"split_type":[0,0,0,0,0,0,0,0,0,0,0,0,0,0,0,0,0,0,0,0,0,0,0,0,0,0,0,0,0,0,0],"sum_hessian":[2.2337532E3,1.750679E3,4.8307422E2,1.4499308E3,3.0074814E2,3.6108945E2,1.2198478E2,3.0076062E2,1.1491702E3,2.747628E2,2.5985374E1,1.4514342E1,3.465751E2,7.7216896E1,4.4767883E1,7.7275826E1,2.234848E2,1.0922619E2,1.039944E3,2.5038899E2,2.4373781E1,9.888836E0,1.6096539E1,6.934605E0,7.5797367E0,4.202869E0,3.4237225E2,5.338352E1,2.3833378E1,3.7038036E1,7.7298474E0],"tree_param":{"num_deleted":"0","num_feature":"9","num_nodes":"31","size_leaf_vector":"1"}},{"base_weights":[1.1819716E-2,5.892743E-1,-3.5582736E-1,-3.9594993E-1,7.6696986E-1,-5.9627193E-1,6.0866624E-1,3.6335668E-1,-5.446286E-1,9.9224097E-1,4.2503712E-1,-6.4877605E-1,9.0467745E-1,9.229171E-1,-2.6099145E-1,-2.1893337E-2,4.1859653E-2,-3.0114887E-2,4.577279E-2,5.0765384E-2,-2.5924226E-2,-1.50137115E-2,4.475219E-2,-1.3821746E-2,-3.395959E-2,5.133612E-2,-1.6266963E-2,4.9426164E-2,-1.9098355E-2,-2.7601752E-2,1.9807316E-2],"categories":[],"categories_nodes":[],"categories_segments":[],"categories_sizes":[],"default_left":[0,0,0,0,0,0,0,0,0,0,0,0,0,0,0,0,0,0,0,0,0,0,0,0,0,0,0,0,0,0,0],"id":17,"left_children":[1,3,5,7,9,11,13,15,17,19,21,23,25,27,29,-1,-1,-1,-1,-1,-1,-1,-1,-1,-1,-1,-1,-1,-1,-1,-1],"loss_changes":[4.7027728E2,1.511607E2,3.1424396E2,1.5136721E1,5.58367E1,8.600455E1,7.4187904E1,8.820563E0,9.9028015E0,1.5843445E1,9.975147E1,1.1679077E1,5.8961124E0,1.7411911E1,1.4104049E1,0E0,0E0,0E0,0E0,0E0,0E0,0E0,0E0,0E0,0E0,0E0,0E0,0E0,0E0,0E0,0E0],"parents":[2147483647,0,0,1,1,2,2,3,3,4,4,5,5,6,6,7,7,8,8,9,9,10,10,11,11,12,12,13,13,14,14],"right_children":[2,4,6,8,10,12,14,16,18,20,22,24,26,28,30,-1,-1,-1,-1,-1,-1,-1,-1,-1,-1,-1,-1,-1,-1,-1,-1],"split_conditions":[7.683052E-1,-9.8441553E-1,2.0986958E0,7.544187E-2,4.153451E-1,3.0477676E1,6.493347E-1,-2.6280982E0,2.7461538E1,5.4907227E-1,8.6755455E-1,1.3491715E-1,4.5013642E-1,2.0333781E0,7.952993E0,-2.1893337E-2,4.1859653E-2,-3.0114887E-2,4.577279E-2,5.0765384E-2,-2.5924226E-2,-1.50137115E-2,4.475219E-2,-1.3821746E-2,-3.395959E-2,5.133612E-2,-1.6266963E-2,4.9426164E-2,-1.9098355E-2,-2.7601752E-2,1.9807316E-2],"split_indices":[2,0,0,2,2,1,3,0,1,3,0,3,3,2,0,0,0,0,0,0,0,0,0,0,0,0,0,0,0,0,0],"split_type":[0,0,0,0,0,0,0,0,0,0,0,0,0,0,0,0,0,0,0,0,0,0,0,0,0,0,0,0,0,0,0],"sum_hessian":[2.213172E3,8.606954E2,1.3524767E3,1.3132765E2,7.2936774E2,1.0828965E3,2.6958017E2,2.1267904E1,1.10059746E2,4.38545E2,2.9082272E2,1.046845E3,3.6051537E1,1.9797916E2,7.160102E1,7.9317665E0,1.3336137E1,1.0644305E2,3.6167016E0,4.3227274E2,6.272262E0,1.1449535E2,1.7632738E2,7.981822E1,9.6702673E2,3.2947674E1,3.103863E0,1.887326E2,9.246547E0,4.9733986E1,2.1867037E1],"tree_param":{"num_deleted":"0","num_feature":"9","num_nodes":"31","size_leaf_vector":"1"}},{"base_weights":[-2.189769E-3,-3.7341693E-1,7.682128E-1,8.6486894E-1,-5.0318897E-1,8.9299417E-1,-1.832356E-1,2.3896003E-1,1.0448022E0,-5.750551E-1,8.633983E-1,-1.697868E-2,9.757839E-1,-5.876734E-1,7.1263325E-1,4.7893424E-2,-3.5526291E-3,-1.028291E-2,5.3439606E-2,-3.2123324E-2,2.585308E-2,1.4652236E-2,6.2050503E-2,-3.0590901E-2,3.5793763E-2,3.63941E-2,5.3235125E-2,-3.3140846E-2,8.7742265E-3,5.2532148E-2,1.4254913E-3],"categories":[],"categories_nodes":[],"categories_segments":[],"categories_sizes":[],"default_left":[0,0,0,0,0,0,0,0,0,0,0,0,0,0,0,0,0,0,0,0,0,0,0,0,0,0,0,0,0,0,0],"id":18,"left_children":[1,3,5,7,9,11,13,15,17,19,21,23,25,27,29,-1,-1,-1,-1,-1,-1,-1,-1,-1,-1,-1,-1,-1,-1,-1,-1],"loss_changes":[6.333786E2,2.4059444E2,8.566162E1,1.5757759E1,1.3341272E2,4.799237E1,3.097197E1,7.4301777E0,3.522667E0,9.503497E1,1.4284882E1,2.4017235E1,1.2092285E1,3.4794273E0,6.1395397E0,0E0,0E0,0E0,0E0,0E0,0E0,0E0,0E0,0E0,0E0,0E0,0E0,0E0,0E0,0E0,0E0],"parents":[2147483647,0,0,1,1,2,2,3,3,4,4,5,5,6,6,7,7,8,8,9,9,10,10,11,11,12,12,13,13,14,14],"right_children":[2,4,6,8,10,12,14,16,18,20,22,24,26,28,30,-1,-1,-1,-1,-1,-1,-1,-1,-1,-1,-1,-1,-1,-1,-1,-1],"split_conditions":[1.0915171E0,-2.1024017E0,4.9548354E0,5.2137345E-1,7.05959E8,2.2625045E-1,1.2152569E0,-5.143868E0,-2.01683E8,5.655291E-1,1.466E9,1.3860823E0,3.5706958E-1,2.4418032E0,8.484065E0,4.7893424E-2,-3.5526291E-3,-1.028291E-2,5.3439606E-2,-3.2123324E-2,2.585308E-2,1.4652236E-2,6.2050503E-2,-3.0590901E-2,3.5793763E-2,3.63941E-2,5.3235125E-2,-3.3140846E-2,8.7742265E-3,5.2532148E-2,1.4254913E-3],"split_indices":[2,0,0,2,7,3,3,0,7,3,7,2,3,2,0,0,0,0,0,0,0,0,0,0,0,0,0,0,0,0,0],"split_type":[0,0,0,0,0,0,0,0,0,0,0,0,0,0,0,0,0,0,0,0,0,0,0,0,0,0,0,0,0,0,0],"sum_hessian":[2.2126511E3,1.4935044E3,7.1914667E2,1.411344E2,1.35237E3,6.358209E2,8.332572E1,3.2033146E1,1.09101265E2,1.285355E3,6.701507E1,5.308949E1,5.8273145E2,5.7645718E1,2.5680004E1,9.0219E0,2.3011244E1,1.911147E0,1.0719012E2,1.2110162E3,7.4338684E1,2.74022E1,3.961287E1,2.939525E1,2.3694239E1,1.5626274E2,4.264687E2,5.2598186E1,5.047534E0,1.6829288E1,8.850715E0],"tree_param":{"num_deleted":"0","num_feature":"9","num_nodes":"31","size_leaf_vector":"1"}},{"base_weights":[-2.4288021E-2,1.1699431E-1,-4.6344617E-1,-4.3612197E-1,3.0426058E-1,2.1261914E-1,-5.359126E-1,1.1094945E-1,-5.8727026E-1,4.6329057E-1,-5.299027E-1,6.787437E-1,-3.5453343E-1,-6.326683E-1,-5.465486E-2,-1.8823808E-2,3.5397273E-2,-3.0548116E-2,5.4101143E-3,-2.7089342E-2,2.8540019E-2,-2.973713E-2,5.1585115E-3,4.8059836E-2,-2.298289E-2,2.3060856E-2,-2.2638822E-2,-2.4531437E-2,-3.3916436E-2,2.82717E-3,-2.6310477E-2],"categories":[],"categories_nodes":[],"categories_segments":[],"categories_sizes":[],"default_left":[0,0,0,0,0,0,0,0,0,0,0,0,0,0,0,0,0,0,0,0,0,0,0,0,0,0,0,0,0,0,0],"id":19,"left_children":[1,3,5,7,9,11,13,15,17,19,21,23,25,27,29,-1,-1,-1,-1,-1,-1,-1,-1,-1,-1,-1,-1,-1,-1,-1,-1],"loss_changes":[1.3786642E2,1.7428305E2,2.6610916E1,3.526322E1,1.6694812E2,1.4271927E1,2.2724579E1,2.7325312E1,5.564209E0,1.14412155E2,8.340008E0,9.919577E0,2.180317E0,2.305893E0,4.37728E0,0E0,0E0,0E0,0E0,0E0,0E0,0E0,0E0,0E0,0E0,0E0,0E0,0E0,0E0,0E0,0E0],"parents":[2147483647,0,0,1,1,2,2,3,3,4,4,5,5,6,6,7,7,8,8,9,9,10,10,11,11,12,12,13,13,14,14],"right_children":[2,4,6,8,10,12,14,16,18,20,22,24,26,28,30,-1,-1,-1,-1,-1,-1,-1,-1,-1,-1,-1,-1,-1,-1,-1,-1],"split_conditions":[1.1844065E0,3.765287E-1,2.7735496E-1,-8.2076925E-1,2.17575E0,1.5038248E0,3.0443602E0,8.030145E-2,3.088577E-1,-2.1024017E0,5.731183E-1,1.6532047E0,-3.04E8,3.5706958E-1,1.5441536E0,-1.8823808E-2,3.5397273E-2,-3.0548116E-2,5.4101143E-3,-2.7089342E-2,2.8540019E-2,-2.973713E-2,5.1585115E-3,4.8059836E-2,-2.298289E-2,2.3060856E-2,-2.2638822E-2,-2.4531437E-2,-3.3916436E-2,2.82717E-3,-2.6310477E-2],"split_indices":[2,2,3,0,0,2,0,3,3,0,3,0,7,3,3,0,0,0,0,0,0,0,0,0,0,0,0,0,0,0,0],"split_type":[0,0,0,0,0,0,0,0,0,0,0,0,0,0,0,0,0,0,0,0,0,0,0,0,0,0,0,0,0,0,0],"sum_hessian":[2.220155E3,1.6803124E3,5.398426E2,4.2466827E2,1.2556442E3,5.2075687E1,4.877669E2,9.198836E1,3.326799E2,1.0549639E3,2.0068018E2,2.8475677E1,2.3600008E1,4.0585593E2,8.1911E1,5.0844803E1,4.1143555E1,3.2183765E2,1.084226E1,1.01551315E2,9.534126E2,1.8209082E2,1.8589361E1,2.2939688E1,5.5359893E0,2.1395788E0,2.146043E1,1.0158668E2,3.0426923E2,6.699327E1,1.4917728E1],"tree_param":{"num_deleted":"0","num_feature":"9","num_nodes":"31","size_leaf_vector":"1"}},{"base_weights":[1.1992618E-2,6.377564E-1,-3.4090722E-1,8.6787176E-1,3.5053334E-1,-3.794753E-1,8.829157E-1,8.924877E-1,-3.2518286E-2,7.2787464E-1,1.24827676E-1,4.2322502E-1,-4.2666766E-1,9.6993166E-1,9.498401E-3,4.562713E-2,-3.3301737E-2,4.632911E-2,-2.3923177E-2,-1.8232618E-2,2.3842597E-2,3.8350835E-2,-2.3488915E-2,-2.3911502E-2,2.0349873E-2,5.28471E-2,8.414063E-3,2.8775556E-2,-2.487885E-2],"categories":[],"categories_nodes":[],"categories_segments":[],"categories_sizes":[],"default_left":[0,0,0,0,0,0,0,0,0,0,0,0,0,0,0,0,0,0,0,0,0,0,0,0,0,0,0,0,0],"id":20,"left_children":[1,3,5,7,9,11,13,15,-1,17,19,21,23,25,27,-1,-1,-1,-1,-1,-1,-1,-1,-1,-1,-1,-1,-1,-1],"loss_changes":[4.8894366E2,5.2464447E1,6.7158264E1,1.712091E1,3.029739E1,5.219835E1,3.300911E0,1.42335205E1,0E0,3.2405045E1,3.8851635E1,2.3923443E1,5.5965485E1,2.5841446E0,1.7087504E0,0E0,0E0,0E0,0E0,0E0,0E0,0E0,0E0,0E0,0E0,0E0,0E0,0E0,0E0],"parents":[2147483647,0,0,1,1,2,2,3,3,4,4,5,5,6,6,7,7,9,9,10,10,11,11,12,12,13,13,14,14],"right_children":[2,4,6,8,10,12,14,16,-1,18,20,22,24,26,28,-1,-1,-1,-1,-1,-1,-1,-1,-1,-1,-1,-1,-1,-1],"split_conditions":[7.052668E-1,3.1870574E-1,3.0477676E1,5.4907227E-1,-1.6084774E-1,-1.5539264E2,1.2564274E0,3.66642E8,-3.2518286E-2,-1.5891697E-4,-4.6610665E-2,1.7212635E0,3.459659E1,9.5303E7,-3.4121405E2,4.562713E-2,-3.3301737E-2,4.632911E-2,-2.3923177E-2,-1.8232618E-2,2.3842597E-2,3.8350835E-2,-2.3488915E-2,-2.3911502E-2,2.0349873E-2,5.28471E-2,8.414063E-3,2.8775556E-2,-2.487885E-2],"split_indices":[2,2,1,3,6,6,2,7,0,5,5,2,6,7,5,0,0,0,0,0,0,0,0,0,0,0,0,0,0],"split_type":[0,0,0,0,0,0,0,0,0,0,0,0,0,0,0,0,0,0,0,0,0,0,0,0,0,0,0,0,0],"sum_hessian":[2.212114E3,7.9738306E2,1.414731E3,4.4157977E2,3.558033E2,1.3721775E3,4.2553474E1,4.3494003E2,6.6397433E0,1.3233571E2,2.234676E2,7.575104E1,1.2964264E3,3.8597603E1,3.9558687E0,4.2982358E2,5.116447E0,1.1381933E2,1.8516373E1,9.34676E1,1.3E2,5.4796402E1,2.095464E1,1.2213142E3,7.51122E1,3.4531166E1,4.066437E0,1.8055255E0,2.1503432E0],"tree_param":{"num_deleted":"0","num_feature":"9","num_nodes":"29","size_leaf_vector":"1"}},{"base_weights":[-1.6954055E-2,-3.4679598E-1,7.7970445E-1,8.219229E-1,-4.682058E-1,8.9150864E-1,-1.080426E-1,-7.87538E-4,9.5337206E-1,-5.4094833E-1,8.5804796E-1,1.8115868E-1,9.637828E-1,-4.5659703E-1,9.9745363E-1,3.3616226E-2,-1.4663032E-2,2.146024E-2,5.106125E-2,-3.150495E-2,2.1176193E-2,1.4734889E-2,6.0367066E-2,-2.0529356E-2,3.951247E-2,-1.6472597E-2,4.8532467E-2,-2.8223211E-2,2.9840732E-2,5.3518176E-2,1.1380997E-2],"categories":[],"categories_nodes":[],"categories_segments":[],"categories_sizes":[],"default_left":[0,0,0,0,0,0,0,0,0,0,0,0,0,0,0,0,0,0,0,0,0,0,0,0,0,0,0,0,0,0,0],"id":21,"left_children":[1,3,5,7,9,11,13,15,17,19,21,23,25,27,29,-1,-1,-1,-1,-1,-1,-1,-1,-1,-1,-1,-1,-1,-1,-1,-1],"loss_changes":[5.692986E2,2.1778345E2,6.3059723E1,1.56326065E1,1.3442688E2,2.875644E1,2.8140574E1,4.314136E0,3.994423E0,1.1350586E2,1.3927521E1,1.9524984E1,4.8597107E0,6.6218615E0,7.4069405E-1,0E0,0E0,0E0,0E0,0E0,0E0,0E0,0E0,0E0,0E0,0E0,0E0,0E0,0E0,0E0,0E0],"parents":[2147483647,0,0,1,1,2,2,3,3,4,4,5,5,6,6,7,7,8,8,9,9,10,10,11,11,12,12,13,13,14,14],"right_children":[2,4,6,8,10,12,14,16,18,20,22,24,26,28,30,-1,-1,-1,-1,-1,-1,-1,-1,-1,-1,-1,-1,-1,-1,-1,-1],"split_conditions":[1.1701754E0,-2.1024017E0,4.9548354E0,3.07058E-1,7.05959E8,2.7735496E-1,1.4830256E0,-5.143868E0,-6.2629706E-1,5.014581E-1,1.466E9,1.5038248E0,-7.0029644E3,2.6379244E0,1.0305641E1,3.3616226E-2,-1.4663032E-2,2.146024E-2,5.106125E-2,-3.150495E-2,2.1176193E-2,1.4734889E-2,6.0367066E-2,-2.0529356E-2,3.951247E-2,-1.6472597E-2,4.8532467E-2,-2.8223211E-2,2.9840732E-2,5.3518176E-2,1.1380997E-2],"split_indices":[2,0,0,2,7,3,3,0,5,3,7,2,4,2,0,0,0,0,0,0,0,0,0,0,0,0,0,0,0,0,0],"split_type":[0,0,0,0,0,0,0,0,0,0,0,0,0,0,0,0,0,0,0,0,0,0,0,0,0,0,0,0,0,0,0],"sum_hessian":[2.1644875E3,1.53112E3,6.333676E2,1.4354579E2,1.3875742E3,5.625189E2,7.0848694E1,1.9912424E1,1.2363336E2,1.315987E3,7.1587265E1,5.2271603E1,5.102473E2,5.431163E1,1.6537062E1,5.638029E0,1.4274396E1,1.5009525E1,1.0862384E2,1.2049541E3,1.1103288E2,2.8104015E1,4.3483246E1,2.6678614E1,2.559299E1,2.4467757E0,5.0780054E2,4.968785E1,4.623779E0,1.474975E1,1.7873114E0],"tree_param":{"num_deleted":"0","num_feature":"9","num_nodes":"31","size_leaf_vector":"1"}},{"base_weights":[-9.741327E-3,1.0533316E-1,-5.080471E-1,2.3712097E-1,-5.452122E-1,-6.3442475E-1,-1.499862E-1,-3.8200602E-1,3.907889E-1,-6.2102675E-1,3.3926442E-2,3.6845377E-1,-3.324763E-2,-6.879099E-3,-5.819814E-1,1.40172085E-2,-2.7274102E-2,2.4531132E-2,-2.539439E-2,-3.3468418E-2,-8.978553E-3,3.3566073E-2,-1.7619653E-2,4.967285E-2,-5.8409832E-3,-7.787184E-3,1.195432E-2,-3.2475006E-2,2.5980636E-3],"categories":[],"categories_nodes":[],"categories_segments":[],"categories_sizes":[],"default_left":[0,0,0,0,0,0,0,0,0,0,0,0,0,0,0,0,0,0,0,0,0,0,0,0,0,0,0,0,0],"id":22,"left_children":[1,3,5,7,9,11,13,15,17,19,21,23,-1,25,27,-1,-1,-1,-1,-1,-1,-1,-1,-1,-1,-1,-1,-1,-1],"loss_changes":[1.2601594E2,1.5319804E2,1.8561043E1,1.4146368E2,1.3239807E1,9.565056E0,6.7261353E0,3.2188087E1,1.07056244E2,5.562027E0,9.051335E0,3.0387297E0,0E0,3.0685065E0,1.1927452E0,0E0,0E0,0E0,0E0,0E0,0E0,0E0,0E0,0E0,0E0,0E0,0E0,0E0,0E0],"parents":[2147483647,0,0,1,1,2,2,3,3,4,4,5,5,6,6,7,7,8,8,9,9,10,10,11,11,13,13,14,14],"right_children":[2,4,6,8,10,12,14,16,18,20,22,24,-1,26,28,-1,-1,-1,-1,-1,-1,-1,-1,-1,-1,-1,-1,-1,-1],"split_conditions":[1.3478243E0,2.17575E0,8.927217E-1,3.1870574E-1,4.7924015E-1,5.909629E-2,1.5441536E0,-9.500392E-1,5.655291E-1,1.2E8,4.268604E0,1.5038248E0,-3.324763E-2,-1.0478618E-3,1.0305641E1,1.40172085E-2,-2.7274102E-2,2.4531132E-2,-2.539439E-2,-3.3468418E-2,-8.978553E-3,3.3566073E-2,-1.7619653E-2,4.967285E-2,-5.8409832E-3,-7.787184E-3,1.195432E-2,-3.2475006E-2,2.5980636E-3],"split_indices":[2,0,0,2,3,3,3,0,3,7,0,2,0,8,0,0,0,0,0,0,0,0,0,0,0,0,0,0,0],"split_type":[0,0,0,0,0,0,0,0,0,0,0,0,0,0,0,0,0,0,0,0,0,0,0,0,0,0,0,0,0],"sum_hessian":[2.1956763E3,1.7843926E3,4.1128375E2,1.4843314E3,3.0006113E2,3.0341986E2,1.078639E2,2.9485934E2,1.189472E3,2.652634E2,3.4797733E1,8.63633E0,2.9478354E2,8.178643E1,2.6077475E1,5.822721E1,2.3663213E2,1.0709542E3,1.1851792E2,2.3861737E2,2.6646027E1,1.2853233E1,2.1944502E1,3.3170094E0,5.3193207E0,5.1178627E1,3.06078E1,2.3545225E1,2.5322495E0],"tree_param":{"num_deleted":"0","num_feature":"9","num_nodes":"29","size_leaf_vector":"1"}},{"base_weights":[1.0217017E-2,5.276718E-1,-3.7524867E-1,8.2187307E-1,2.5759944E-1,-4.1912746E-1,8.773581E-1,8.4169793E-1,-3.1299282E-2,5.907156E-1,-3.018337E-2,-4.801079E-1,2.2195709E-1,9.4452316E-1,-2.323064E-2,4.3870166E-2,5.056442E-3,3.8716234E-2,1.9243668E-4,4.2093527E-2,-1.1275628E-2,1.3805002E-2,-2.7272275E-2,-2.975875E-2,3.0925978E-2,2.2438372E-2,5.2283734E-2],"categories":[],"categories_nodes":[],"categories_segments":[],"categories_sizes":[],"default_left":[0,0,0,0,0,0,0,0,0,0,0,0,0,0,0,0,0,0,0,0,0,0,0,0,0,0,0],"id":23,"left_children":[1,3,5,7,9,11,13,15,-1,17,19,21,23,25,-1,-1,-1,-1,-1,-1,-1,-1,-1,-1,-1,-1,-1],"loss_changes":[4.403749E2,7.467792E1,6.991211E1,1.3462372E1,4.7267365E1,4.7923965E1,4.3277893E0,1.167807E1,0E0,2.4618103E1,4.539438E1,5.535141E1,3.5016563E1,1.6077843E0,0E0,0E0,0E0,0E0,0E0,0E0,0E0,0E0,0E0,0E0,0E0,0E0,0E0],"parents":[2147483647,0,0,1,1,2,2,3,3,4,4,5,5,6,6,7,7,9,9,10,10,11,11,12,12,13,13],"right_children":[2,4,6,8,10,12,14,16,-1,18,20,22,24,26,-1,-1,-1,-1,-1,-1,-1,-1,-1,-1,-1,-1,-1],"split_conditions":[8.0582166E-1,3.1870574E-1,3.0477676E1,5.4907227E-1,2.1869525E-1,3.3685868E0,1.6264869E0,4.747503E0,-3.1299282E-2,4.324099E-1,-3.3635528E0,-4.6867264E1,-6.8034003E-3,5.1306423E1,-2.323064E-2,4.3870166E-2,5.056442E-3,3.8716234E-2,1.9243668E-4,4.2093527E-2,-1.1275628E-2,1.3805002E-2,-2.7272275E-2,-2.975875E-2,3.0925978E-2,2.2438372E-2,5.2283734E-2],"split_indices":[2,2,1,3,3,6,2,6,0,6,6,6,5,1,0,0,0,0,0,0,0,0,0,0,0,0,0],"split_type":[0,0,0,0,0,0,0,0,0,0,0,0,0,0,0,0,0,0,0,0,0,0,0,0,0,0,0],"sum_hessian":[2.2058313E3,9.4153375E2,1.2642976E3,4.496585E2,4.918752E2,1.222151E3,4.2146523E1,4.439977E2,5.660797E0,2.2749321E2,2.64382E2,1.116226E3,1.0592514E2,4.04197E1,1.726821E0,4.2339938E2,2.0598335E1,1.730369E2,5.4456314E1,4.77757E1,2.166063E2,8.851698E1,1.0277089E3,3.444633E1,7.147881E1,7.7707767E0,3.2648922E1],"tree_param":{"num_deleted":"0","num_feature":"9","num_nodes":"27","size_leaf_vector":"1"}},{"base_weights":[6.1408896E-3,-3.3209354E-1,7.638713E-1,8.417674E-1,-4.605996E-1,8.770736E-1,-1.8707396E-1,3.8706135E-2,9.6661323E-1,-5.539062E-1,4.718844E-1,1.8165773E-1,9.3611544E-1,-4.89663E-1,8.8648224E-1,3.6230814E-2,-1.0273679E-2,1.5716271E-2,5.016286E-2,-3.150341E-2,-1.8623566E-2,4.9044386E-2,-1.3719921E-2,-1.7506376E-2,3.9321452E-2,4.7184777E-2,-2.8943539E-2,4.6594184E-2,-2.8399551E-2,5.1302563E-2,-7.11177E-3],"categories":[],"categories_nodes":[],"categories_segments":[],"categories_sizes":[],"default_left":[0,0,0,0,0,0,0,0,0,0,0,0,0,0,0,0,0,0,0,0,0,0,0,0,0,0,0,0,0,0,0],"id":24,"left_children":[1,3,5,7,9,11,13,15,17,19,21,23,25,27,29,-1,-1,-1,-1,-1,-1,-1,-1,-1,-1,-1,-1,-1,-1,-1,-1],"loss_changes":[5.5542017E2,2.264099E2,7.2161865E1,1.4820633E1,1.1782034E2,2.437677E1,2.3813951E1,3.6628907E0,2.7493134E0,1.674408E1,4.7159523E1,1.5721142E1,6.8716736E0,6.8527985E0,2.4691868E0,0E0,0E0,0E0,0E0,0E0,0E0,0E0,0E0,0E0,0E0,0E0,0E0,0E0,0E0,0E0,0E0],"parents":[2147483647,0,0,1,1,2,2,3,3,4,4,5,5,6,6,7,7,8,8,9,9,10,10,11,11,12,12,13,13,14,14],"right_children":[2,4,6,8,10,12,14,16,18,20,22,24,26,28,30,-1,-1,-1,-1,-1,-1,-1,-1,-1,-1,-1,-1,-1,-1,-1,-1],"split_conditions":[1.1701754E0,-2.1024017E0,4.9548354E0,3.4309673E-1,4.7924015E-1,2.7735496E-1,1.5441536E0,-6.420306E0,-2.000318E0,8.255417E-2,6.71226E-1,1.4641876E0,2.1175696E2,6.608617E-2,1.0305641E1,3.6230814E-2,-1.0273679E-2,1.5716271E-2,5.016286E-2,-3.150341E-2,-1.8623566E-2,4.9044386E-2,-1.3719921E-2,-1.7506376E-2,3.9321452E-2,4.7184777E-2,-2.8943539E-2,4.6594184E-2,-2.8399551E-2,5.1302563E-2,-7.11177E-3],"split_indices":[2,0,0,2,3,3,3,0,5,8,0,2,1,1,0,0,0,0,0,0,0,0,0,0,0,0,0,0,0,0,0],"split_type":[0,0,0,0,0,0,0,0,0,0,0,0,0,0,0,0,0,0,0,0,0,0,0,0,0,0,0,0,0,0,0],"sum_hessian":[2.1651606E3,1.4973416E3,6.678191E2,1.4719678E2,1.3501448E3,5.9684705E2,7.09721E1,1.9980947E1,1.2721583E2,1.2277037E3,1.2244103E2,4.702669E1,5.498203E2,5.579094E1,1.5181164E1,4.729119E0,1.5251828E1,7.275992E0,1.19939835E2,8.6297516E2,3.647286E2,7.260578E1,4.983525E1,2.5247347E1,2.1779343E1,5.474583E2,2.3620417E0,2.3444877E0,5.344645E1,1.3369832E1,1.8113315E0],"tree_param":{"num_deleted":"0","num_feature":"9","num_nodes":"31","size_leaf_vector":"1"}},{"base_weights":[-6.8238983E-3,1.2289793E-1,-4.5332447E-1,2.5519672E-1,-5.426802E-1,-5.894086E-1,-1.3544205E-1,-3.8220987E-1,4.1804042E-1,-6.121024E-1,1.5267499E-1,9.111795E-2,-6.3454854E-1,2.0707221E-1,-3.084923E-1,2.6348323E-2,-2.5208076E-2,-3.0401263E-2,2.5180181E-2,-2.1327375E-2,-3.277942E-2,3.9365225E-2,-1.7542522E-2,4.6357166E-2,-2.4829252E-2,1.2533716E-2,-3.2162845E-2,2.3111429E-2,-3.2882538E-2,-3.0659273E-2,-2.4445463E-4],"categories":[],"categories_nodes":[],"categories_segments":[],"categories_sizes":[],"default_left":[0,0,0,0,0,0,0,0,0,0,0,0,0,0,0,0,0,0,0,0,0,0,0,0,0,0,0,0,0,0,0],"id":25,"left_children":[1,3,5,7,9,11,13,15,17,19,21,23,25,27,29,-1,-1,-1,-1,-1,-1,-1,-1,-1,-1,-1,-1,-1,-1,-1,-1],"loss_changes":[1.2702175E2,1.4977594E2,2.1277008E1,1.4737222E2,1.3711136E1,1.066835E1,8.912813E0,3.23227E1,9.9524826E1,1.7916031E0,8.714805E0,1.1446853E1,2.6592712E0,1.1492378E1,9.209126E0,0E0,0E0,0E0,0E0,0E0,0E0,0E0,0E0,0E0,0E0,0E0,0E0,0E0,0E0,0E0,0E0],"parents":[2147483647,0,0,1,1,2,2,3,3,4,4,5,5,6,6,7,7,8,8,9,9,10,10,11,11,12,12,13,13,14,14],"right_children":[2,4,6,8,10,12,14,16,18,20,22,24,26,28,30,-1,-1,-1,-1,-1,-1,-1,-1,-1,-1,-1,-1,-1,-1,-1,-1],"split_conditions":[1.2041373E0,2.17575E0,6.567557E-1,3.1870574E-1,5.4907227E-1,2.2625045E-1,3.201318E-1,-1.4857658E0,-2.6280982E0,2.9293904E0,4.80333E0,1.4389573E0,-1.7623119E3,6.7376695E0,4.644931E0,2.6348323E-2,-2.5208076E-2,-3.0401263E-2,2.5180181E-2,-2.1327375E-2,-3.277942E-2,3.9365225E-2,-1.7542522E-2,4.6357166E-2,-2.4829252E-2,1.2533716E-2,-3.2162845E-2,2.3111429E-2,-3.2882538E-2,-3.0659273E-2,-2.4445463E-4],"split_indices":[2,0,0,2,3,3,3,0,0,0,0,2,4,0,0,0,0,0,0,0,0,0,0,0,0,0,0,0,0,0,0],"split_type":[0,0,0,0,0,0,0,0,0,0,0,0,0,0,0,0,0,0,0,0,0,0,0,0,0,0,0,0,0,0,0],"sum_hessian":[2.19106E3,1.6983602E3,4.926999E2,1.4172634E3,2.8109674E2,3.444067E2,1.482932E2,2.8812622E2,1.1291372E3,2.5568921E2,2.5407522E1,2.1360418E1,3.230463E2,4.970891E1,9.8584274E1,3.3683945E1,2.5444229E2,8.644082E1,1.0426964E3,5.059768E1,2.0509152E2,1.0991082E1,1.441644E1,8.578983E0,1.2781435E1,2.8763251E0,3.2016995E2,3.8742508E1,1.0966405E1,4.8694885E1,4.9889393E1],"tree_param":{"num_deleted":"0","num_feature":"9","num_nodes":"31","size_leaf_vector":"1"}},{"base_weights":[1.616661E-2,5.3806806E-1,-3.502525E-1,7.9329777E-1,2.6375747E-1,-3.8733268E-1,9.5816326E-1,8.248621E-1,-3.080112E-1,5.907864E-1,-1.3522934E-2,-4.4804093E-1,1.9750221E-1,1.0422546E0,-2.2706633E-2,4.3267872E-2,1.7089023E-3,3.4466055E-3,-3.1590324E-2,3.440062E-2,-1.9770337E-2,3.93435E-2,-1.0811203E-2,1.2493788E-2,-2.544449E-2,-3.0078748E-2,3.0408937E-2,5.5360753E-2,-5.032011E-3],"categories":[],"categories_nodes":[],"categories_segments":[],"categories_sizes":[],"default_left":[0,0,0,0,0,0,0,0,0,0,0,0,0,0,0,0,0,0,0,0,0,0,0,0,0,0,0,0,0],"id":26,"left_children":[1,3,5,7,9,11,13,15,17,19,21,23,25,27,-1,-1,-1,-1,-1,-1,-1,-1,-1,-1,-1,-1,-1,-1,-1],"loss_changes":[4.164508E2,6.2679565E1,6.2445496E1,1.6411926E1,3.940265E1,4.4288055E1,4.695072E0,1.4447296E1,1.7130872E0,1.9387505E1,3.847205E1,4.803633E1,3.901278E1,2.624836E0,0E0,0E0,0E0,0E0,0E0,0E0,0E0,0E0,0E0,0E0,0E0,0E0,0E0,0E0,0E0],"parents":[2147483647,0,0,1,1,2,2,3,3,4,4,5,5,6,6,7,7,8,8,9,9,10,10,11,11,12,12,13,13],"right_children":[2,4,6,8,10,12,14,16,18,20,22,24,26,28,-1,-1,-1,-1,-1,-1,-1,-1,-1,-1,-1,-1,-1,-1,-1],"split_conditions":[7.683052E-1,3.1870574E-1,5.1306423E1,3.088577E-1,2.1869525E-1,3.3685868E0,1.7563345E0,4.747503E0,5.4907227E-1,5.46E8,-2.158226E0,-4.6867264E1,6.1344607E-3,3.006E9,-2.2706633E-2,4.3267872E-2,1.7089023E-3,3.4466055E-3,-3.1590324E-2,3.440062E-2,-1.9770337E-2,3.93435E-2,-1.0811203E-2,1.2493788E-2,-2.544449E-2,-3.0078748E-2,3.0408937E-2,5.5360753E-2,-5.032011E-3],"split_indices":[2,2,1,3,3,6,3,6,3,7,6,6,5,7,0,0,0,0,0,0,0,0,0,0,0,0,0,0,0],"split_type":[0,0,0,0,0,0,0,0,0,0,0,0,0,0,0,0,0,0,0,0,0,0,0,0,0,0,0,0,0],"sum_hessian":[2.1757095E3,8.972549E2,1.2784547E3,4.638127E2,4.3344217E2,1.2439067E3,3.4548027E1,4.5113388E2,1.2678834E1,1.9836118E2,2.35081E2,1.1271389E3,1.16767715E2,3.2853848E1,1.6941801E0,4.2906467E2,2.2069225E1,6.2223063E0,6.456528E0,1.8083548E2,1.7525696E1,4.6921833E1,1.8815915E2,9.014131E1,1.0369977E3,3.948148E1,7.728624E1,3.1116453E1,1.7373949E0],"tree_param":{"num_deleted":"0","num_feature":"9","num_nodes":"29","size_leaf_vector":"1"}},{"base_weights":[-1.2166499E-2,-3.353851E-1,7.3342484E-1,7.800622E-1,-4.5716557E-1,8.386029E-1,-1.5140708E-1,2.092473E-1,9.503602E-1,-5.48104E-1,3.8110223E-1,1.9005372E-1,8.9822674E-1,-4.914931E-1,9.027652E-1,2.4008518E-2,-2.842907E-2,4.843767E-2,-6.67718E-3,-3.098279E-2,-1.88722E-2,4.022755E-2,-1.9911638E-2,-1.909041E-2,3.3214327E-2,-1.754399E-2,4.5231543E-2,3.2874554E-2,-2.7764052E-2,5.065146E-2,4.8240656E-3],"categories":[],"categories_nodes":[],"categories_segments":[],"categories_sizes":[],"default_left":[0,0,0,0,0,0,0,0,0,0,0,0,0,0,0,0,0,0,0,0,0,0,0,0,0,0,0,0,0,0,0],"id":27,"left_children":[1,3,5,7,9,11,13,15,17,19,21,23,25,27,29,-1,-1,-1,-1,-1,-1,-1,-1,-1,-1,-1,-1,-1,-1,-1,-1],"loss_changes":[5.2449585E2,2.0659262E2,6.138037E1,1.4363892E1,1.0460089E2,2.2582397E1,2.5815994E1,7.797512E0,2.4241104E0,1.4856689E1,4.4743076E1,1.4032717E1,4.625885E0,4.334302E0,1.4683123E0,0E0,0E0,0E0,0E0,0E0,0E0,0E0,0E0,0E0,0E0,0E0,0E0,0E0,0E0,0E0,0E0],"parents":[2147483647,0,0,1,1,2,2,3,3,4,4,5,5,6,6,7,7,8,8,9,9,10,10,11,11,12,12,13,13,14,14],"right_children":[2,4,6,8,10,12,14,16,18,20,22,24,26,28,30,-1,-1,-1,-1,-1,-1,-1,-1,-1,-1,-1,-1,-1,-1,-1,-1],"split_conditions":[1.1701754E0,-2.1024017E0,4.9548354E0,5.2137345E-1,4.6237522E-1,2.7735496E-1,1.4830256E0,-2.8327558E0,5.1306423E1,8.255417E-2,9.6775126E-1,1.4389573E0,-7.0029644E3,6.608617E-2,1.0305641E1,2.4008518E-2,-2.842907E-2,4.843767E-2,-6.67718E-3,-3.098279E-2,-1.88722E-2,4.022755E-2,-1.9911638E-2,-1.909041E-2,3.3214327E-2,-1.754399E-2,4.5231543E-2,3.2874554E-2,-2.7764052E-2,5.065146E-2,4.8240656E-3],"split_indices":[2,0,0,2,3,3,3,0,1,8,0,2,4,1,0,0,0,0,0,0,0,0,0,0,0,0,0,0,0,0,0],"split_type":[0,0,0,0,0,0,0,0,0,0,0,0,0,0,0,0,0,0,0,0,0,0,0,0,0,0,0,0,0,0,0],"sum_hessian":[2.17441E3,1.5172308E3,6.571791E2,1.4880916E2,1.3684218E3,5.874075E2,6.9771645E1,3.470652E1,1.1410264E2,1.234811E3,1.3361073E2,4.980865E1,5.375988E2,5.315659E1,1.6615057E1,2.6024641E1,8.681881E0,1.1230316E2,1.7994804E0,8.681815E2,3.6662943E2,8.655114E1,4.7059593E1,2.2668427E1,2.7140224E1,2.4678187E0,5.35131E2,2.306325E0,5.085026E1,1.4390637E1,2.2244198E0],"tree_param":{"num_deleted":"0","num_feature":"9","num_nodes":"31","size_leaf_vector":"1"}},{"base_weights":[-9.416386E-3,9.3593545E-2,-4.7652042E-1,2.1870497E-1,-5.140806E-1,-6.1024666E-1,6.180616E-3,-2.059953E-1,3.305137E-1,-5.5804217E-1,4.809074E-2,3.340767E-2,-6.1943316E-1,2.8986716E-1,-3.266493E-1,1.1074224E-2,-1.5252705E-2,-2.890191E-2,1.9993415E-2,-2.890933E-2,8.275654E-3,3.5549432E-2,-1.8880112E-2,-5.563392E-3,-3.1421583E-2,2.6459051E-2,-2.4470765E-2,3.6460932E-3,-2.7044667E-2],"categories":[],"categories_nodes":[],"categories_segments":[],"categories_sizes":[],"default_left":[0,0,0,0,0,0,0,0,0,0,0,0,0,0,0,0,0,0,0,0,0,0,0,0,0,0,0,0,0],"id":28,"left_children":[1,3,5,7,9,11,13,15,17,19,21,-1,23,25,27,-1,-1,-1,-1,-1,-1,-1,-1,-1,-1,-1,-1,-1,-1],"loss_changes":[1.0503992E2,1.3610022E2,2.5464462E1,7.0535675E1,7.581558E0,4.0413284E0,8.267413E0,1.3189651E1,7.427751E1,4.2292633E0,6.7846785E0,0E0,1.3347702E0,9.072374E0,3.4892879E0,0E0,0E0,0E0,0E0,0E0,0E0,0E0,0E0,0E0,0E0,0E0,0E0,0E0,0E0],"parents":[2147483647,0,0,1,1,2,2,3,3,4,4,5,5,6,6,7,7,8,8,9,9,10,10,12,12,13,13,14,14],"right_children":[2,4,6,8,10,12,14,16,18,20,22,-1,24,26,28,-1,-1,-1,-1,-1,-1,-1,-1,-1,-1,-1,-1,-1,-1],"split_conditions":[5.8956504E-1,2.0278447E0,1.6133909E0,9.8486245E-2,1.98303E8,-7.0029644E3,1.1308331E0,5.0973177E-1,-2.6280982E0,5.4907227E-1,2.9293904E0,3.340767E-2,1.5810069E-3,7.8054748E0,-9.3436365E2,1.1074224E-2,-1.5252705E-2,-2.890191E-2,1.9993415E-2,-2.890933E-2,8.275654E-3,3.5549432E-2,-1.8880112E-2,-5.563392E-3,-3.1421583E-2,2.6459051E-2,-2.4470765E-2,3.6460932E-3,-2.7044667E-2],"split_indices":[3,0,0,3,7,4,3,1,0,3,0,0,1,0,6,0,0,0,0,0,0,0,0,0,0,0,0,0,0],"split_type":[0,0,0,0,0,0,0,0,0,0,0,0,0,0,0,0,0,0,0,0,0,0,0,0,0,0,0,0,0],"sum_hessian":[2.1811128E3,1.7876777E3,3.9343494E2,1.4829911E3,3.046866E2,3.078772E2,8.555774E1,3.0888046E2,1.1741107E3,2.8259512E2,2.209148E1,1.6848118E0,3.061924E2,4.625852E1,3.929922E1,5.787782E1,2.5100262E2,8.274952E1,1.0913612E3,2.7513602E2,7.4591064E0,8.376785E0,1.3714695E1,5.560186E0,3.006322E2,3.563586E1,1.0622659E1,1.3947104E1,2.5352116E1],"tree_param":{"num_deleted":"0","num_feature":"9","num_nodes":"29","size_leaf_vector":"1"}},{"base_weights":[4.56963E-3,5.4200023E-1,-3.2006118E-1,-3.2778355E-1,7.014853E-1,-5.353153E-1,5.4320335E-1,4.888936E-1,-5.3064615E-1,5.3167236E-1,9.7512746E-1,-4.115203E-2,-5.9073526E-1,8.3775723E-1,-2.956051E-1,-9.389739E-3,4.300196E-2,4.067341E-2,-2.822423E-2,4.0975664E-2,-3.324579E-4,4.971271E-2,2.6789844E-2,-2.2444153E-2,3.110434E-2,3.569783E-2,-3.0292684E-2,4.7098305E-2,6.0098767E-3,-3.1357706E-2,2.6217063E-3],"categories":[],"categories_nodes":[],"categories_segments":[],"categories_sizes":[],"default_left":[0,0,0,0,0,0,0,0,0,0,0,0,0,0,0,0,0,0,0,0,0,0,0,0,0,0,0,0,0,0,0],"id":29,"left_children":[1,3,5,7,9,11,13,15,17,19,21,23,25,27,29,-1,-1,-1,-1,-1,-1,-1,-1,-1,-1,-1,-1,-1,-1,-1,-1],"loss_changes":[3.777861E2,1.1334355E2,2.5114197E2,2.1305134E1,3.1516235E1,2.9581451E1,6.69393E1,6.640303E0,5.1091175E0,6.6262726E1,1.6755066E0,3.0049147E1,1.9604065E1,1.4844559E1,8.213162E0,0E0,0E0,0E0,0E0,0E0,0E0,0E0,0E0,0E0,0E0,0E0,0E0,0E0,0E0,0E0,0E0],"parents":[2147483647,0,0,1,1,2,2,3,3,4,4,5,5,6,6,7,7,8,8,9,9,10,10,11,11,12,12,13,13,14,14],"right_children":[2,4,6,8,10,12,14,16,18,20,22,24,26,28,30,-1,-1,-1,-1,-1,-1,-1,-1,-1,-1,-1,-1,-1,-1,-1,-1],"split_conditions":[7.052668E-1,-9.8441553E-1,2.17575E0,7.544187E-2,1.2218914E0,1.3491715E-1,1.4826864E0,-2.2503376E0,-1.4571428E1,3.1870574E-1,4.1160646E-1,8.3519125E-1,-3.7469315E1,6.8515545E-1,6.256923E0,-9.389739E-3,4.300196E-2,4.067341E-2,-2.822423E-2,4.0975664E-2,-3.324579E-4,4.971271E-2,2.6789844E-2,-2.2444153E-2,3.110434E-2,3.569783E-2,-3.0292684E-2,4.7098305E-2,6.0098767E-3,-3.1357706E-2,2.6217063E-3],"split_indices":[2,0,0,2,0,3,2,0,5,2,3,0,5,3,0,0,0,0,0,0,0,0,0,0,0,0,0,0,0,0,0],"split_type":[0,0,0,0,0,0,0,0,0,0,0,0,0,0,0,0,0,0,0,0,0,0,0,0,0,0,0,0,0,0,0],"sum_hessian":[2.1633843E3,8.144243E2,1.3489598E3,1.260314E2,6.8839294E2,1.0800343E3,2.689255E2,2.4796509E1,1.0123489E2,4.2660162E2,2.6179132E2,1.0908641E2,9.7094794E2,1.9903436E2,6.989115E1,8.957972E0,1.5838537E1,1.9202436E0,9.931465E1,2.7763022E2,1.489714E2,2.4965903E2,1.2132282E1,6.775606E1,4.1330353E1,1.0592689E1,9.603552E2,1.7352164E2,2.5512726E1,3.5382816E1,3.4508335E1],"tree_param":{"num_deleted":"0","num_feature":"9","num_nodes":"31","size_leaf_vector":"1"}},{"base_weights":[-6.859966E-3,2.3785043E-1,-3.5519582E-1,4.3393594E-1,-1.9376998E-1,-4.103578E-1,9.869474E-1,8.7384784E-1,3.3482677E-1,5.233689E-1,-4.0229937E-1,1.1884435E-1,-4.793179E-1,1.0918332E0,-2.374311E-2,1.9740425E-2,4.619097E-2,2.089167E-2,-4.539185E-3,1.1082939E-2,4.210231E-2,-2.2862313E-2,1.704273E-2,-2.2735631E-2,9.476523E-3,-1.2036062E-2,-2.635721E-2,5.7018586E-2,-1.181968E-3],"categories":[],"categories_nodes":[],"categories_segments":[],"categories_sizes":[],"default_left":[0,0,0,0,0,0,0,0,0,0,0,0,0,0,0,0,0,0,0,0,0,0,0,0,0,0,0,0,0],"id":30,"left_children":[1,3,5,7,9,11,13,15,17,19,21,23,25,27,-1,-1,-1,-1,-1,-1,-1,-1,-1,-1,-1,-1,-1,-1,-1],"loss_changes":[1.8292445E2,1.0676432E2,6.5962105E1,3.7509552E1,5.9197807E1,3.112178E1,5.9231567E0,3.4366684E0,2.509417E1,8.398731E0,1.2657299E1,4.097347E0,8.469116E0,1.8241653E0,0E0,0E0,0E0,0E0,0E0,0E0,0E0,0E0,0E0,0E0,0E0,0E0,0E0,0E0,0E0],"parents":[2147483647,0,0,1,1,2,2,3,3,4,4,5,5,6,6,7,7,8,8,9,9,10,10,11,11,12,12,13,13],"right_children":[2,4,6,8,10,12,14,16,18,20,22,24,26,28,-1,-1,-1,-1,-1,-1,-1,-1,-1,-1,-1,-1,-1,-1,-1],"split_conditions":[5.692593E-1,1.0149684E0,1.192817E9,-1.1697872E0,-1.6381739E0,2.8615764E-1,7.28853E0,-1.4658749E1,5.566862E-1,-5.189247E-2,1.563834E6,2.0227851E-2,8.19838E-1,2.3445697E0,-2.374311E-2,1.9740425E-2,4.619097E-2,2.089167E-2,-4.539185E-3,1.1082939E-2,4.210231E-2,-2.2862313E-2,1.704273E-2,-2.2735631E-2,9.476523E-3,-1.2036062E-2,-2.635721E-2,5.7018586E-2,-1.181968E-3],"split_indices":[0,1,7,0,0,1,0,4,1,5,7,1,0,5,0,0,0,0,0,0,0,0,0,0,0,0,0,0,0],"split_type":[0,0,0,0,0,0,0,0,0,0,0,0,0,0,0,0,0,0,0,0,0,0,0,0,0,0,0,0,0],"sum_hessian":[2.1439666E3,1.2594817E3,8.844848E2,8.6603564E2,3.9344604E2,8.502345E2,3.4250313E1,1.5779965E2,7.0823596E2,8.829322E1,3.0515283E2,9.7937256E1,7.5229724E2,3.21935E1,2.056809E0,1.5746892E1,1.4205276E2,5.926667E2,1.1556925E2,4.6224953E1,4.2068268E1,2.845022E2,2.0650627E1,1.014955E1,8.7787704E1,1.266244E2,6.2567285E2,3.0829662E1,1.3638394E0],"tree_param":{"num_deleted":"0","num_feature":"9","num_nodes":"29","size_leaf_vector":"1"}},{"base_weights":[1.4548997E-3,1.0819895E-1,-4.6925348E-1,2.3277465E-1,-5.161732E-1,-6.1340874E-1,-8.612346E-2,-4.830358E-1,3.482632E-1,-5.8888006E-1,2.1268196E-2,2.0077835E-1,-6.317906E-1,5.2051313E-2,-5.534704E-1,2.397697E-2,-2.8454667E-2,2.121929E-2,-2.3045946E-2,-3.203424E-2,-2.6924077E-3,2.347472E-2,-1.2987219E-2,2.6560364E-2,-2.2704339E-2,1.7674387E-3,-3.2070827E-2,-1.1931547E-3,3.137727E-2,-3.1147707E-2,3.0928913E-3],"categories":[],"categories_nodes":[],"categories_segments":[],"categories_sizes":[],"default_left":[0,0,0,0,0,0,0,0,0,0,0,0,0,0,0,0,0,0,0,0,0,0,0,0,0,0,0,0,0,0,0],"id":31,"left_children":[1,3,5,7,9,11,13,15,17,19,21,23,25,27,29,-1,-1,-1,-1,-1,-1,-1,-1,-1,-1,-1,-1,-1,-1,-1,-1],"loss_changes":[1.0991726E2,1.3882133E2,2.22816E1,1.23119644E2,1.1614891E1,4.521965E0,7.2431607E0,1.7423592E1,7.911693E1,7.215576E0,4.7001095E0,1.8084095E0,1.8684845E0,3.8219802E0,1.1321902E0,0E0,0E0,0E0,0E0,0E0,0E0,0E0,0E0,0E0,0E0,0E0,0E0,0E0,0E0,0E0,0E0],"parents":[2147483647,0,0,1,1,2,2,3,3,4,4,5,5,6,6,7,7,8,8,9,9,10,10,11,11,12,12,13,13,14,14],"right_children":[2,4,6,8,10,12,14,16,18,20,22,24,26,28,30,-1,-1,-1,-1,-1,-1,-1,-1,-1,-1,-1,-1,-1,-1,-1,-1],"split_conditions":[1.3478243E0,2.17575E0,8.927217E-1,1.9781947E-1,4.7924015E-1,2.6872188E-2,1.5441536E0,-1.5951843E0,5.731183E-1,2.13771E8,4.268604E0,-1.095E6,-1.7623119E3,9.0398306E-1,1.0305641E1,2.397697E-2,-2.8454667E-2,2.121929E-2,-2.3045946E-2,-3.203424E-2,-2.6924077E-3,2.347472E-2,-1.2987219E-2,2.6560364E-2,-2.2704339E-2,1.7674387E-3,-3.2070827E-2,-1.1931547E-3,3.137727E-2,-3.1147707E-2,3.0928913E-3],"split_indices":[2,0,0,2,3,3,3,0,3,7,0,7,4,1,0,0,0,0,0,0,0,0,0,0,0,0,0,0,0,0,0],"split_type":[0,0,0,0,0,0,0,0,0,0,0,0,0,0,0,0,0,0,0,0,0,0,0,0,0,0,0,0,0,0,0],"sum_hessian":[2.1856016E3,1.7822134E3,4.033881E2,1.4862931E3,2.9592032E2,2.9266855E2,1.1071956E2,2.0604175E2,1.2802513E3,2.6057336E2,3.5346954E1,6.242578E0,2.8642596E2,8.614017E1,2.4579391E1,1.6533878E1,1.8950787E2,1.170604E3,1.0964731E2,2.3739044E2,2.3182917E1,1.3362506E1,2.198445E1,4.274566E0,1.9680117E0,4.0359807E0,2.8238998E2,7.694832E1,9.19185E0,2.2074331E1,2.50506E0],"tree_param":{"num_deleted":"0","num_feature":"9","num_nodes":"31","size_leaf_vector":"1"}},{"base_weights":[3.7544353E-3,-2.1368593E-1,6.194441E-1,4.2751765E-1,-3.9167812E-1,7.888694E-1,-2.9871142E-1,-2.3109579E-1,5.908196E-1,-5.030164E-1,3.6948454E-1,8.573985E-1,-2.1076975E-2,-5.1692045E-1,3.199673E-1,-1.7845767E-2,3.6482234E-2,3.410106E-2,-1.4594932E-2,-2.08735E-2,-3.195817E-2,5.2750832E-3,4.730452E-2,2.6365755E-2,4.6174806E-2,-1.802098E-2,4.5372654E-2,-2.721163E-2,2.4154356E-2,4.3431386E-2,-1.4560558E-2],"categories":[],"categories_nodes":[],"categories_segments":[],"categories_sizes":[],"default_left":[0,0,0,0,0,0,0,0,0,0,0,0,0,0,0,0,0,0,0,0,0,0,0,0,0,0,0,0,0,0,0],"id":32,"left_children":[1,3,5,7,9,11,13,15,17,19,21,23,25,27,29,-1,-1,-1,-1,-1,-1,-1,-1,-1,-1,-1,-1,-1,-1,-1,-1],"loss_changes":[2.8651776E2,1.8067651E2,8.712575E1,3.7148422E1,1.05143814E2,2.6206818E1,1.2010408E1,8.612215E0,2.2421425E1,1.2321991E1,2.4044125E1,9.0047E0,1.2232061E1,2.0449123E0,8.13148E0,0E0,0E0,0E0,0E0,0E0,0E0,0E0,0E0,0E0,0E0,0E0,0E0,0E0,0E0,0E0,0E0],"parents":[2147483647,0,0,1,1,2,2,3,3,4,4,5,5,6,6,7,7,8,8,9,9,10,10,11,11,12,12,13,13,14,14],"right_children":[2,4,6,8,10,12,14,16,18,20,22,24,26,28,30,-1,-1,-1,-1,-1,-1,-1,-1,-1,-1,-1,-1,-1,-1,-1,-1],"split_conditions":[1.6133909E0,1.2933089E-1,5.8198255E-1,-1.1114239E0,4.156002E0,2.33322E8,7.952993E0,1.1117788E1,5.1354E7,3.088577E-1,5.1306423E1,2.0986958E0,6.256923E0,7.9583354E0,1.2325046E0,-1.7845767E-2,3.6482234E-2,3.410106E-2,-1.4594932E-2,-2.08735E-2,-3.195817E-2,5.2750832E-3,4.730452E-2,2.6365755E-2,4.6174806E-2,-1.802098E-2,4.5372654E-2,-2.721163E-2,2.4154356E-2,4.3431386E-2,-1.4560558E-2],"split_indices":[0,3,3,0,1,7,0,1,7,3,1,0,0,1,3,0,0,0,0,0,0,0,0,0,0,0,0,0,0,0,0],"split_type":[0,0,0,0,0,0,0,0,0,0,0,0,0,0,0,0,0,0,0,0,0,0,0,0,0,0,0,0,0,0,0],"sum_hessian":[2.1381875E3,1.5806199E3,5.5756757E2,3.4312735E2,1.2374926E3,4.7082755E2,8.6740005E1,6.809165E1,2.7503568E2,1.0798743E3,1.5761833E2,4.3404468E2,3.678287E1,6.4245125E1,2.2494884E1,6.076262E1,7.3290343E0,2.4948636E2,2.5549326E1,6.6567267E2,4.1420157E2,1.08930504E2,4.8687824E1,7.391248E1,3.601322E2,2.7386118E1,9.396752E0,6.2980762E1,1.2643578E0,1.1631736E1,1.0863149E1],"tree_param":{"num_deleted":"0","num_feature":"9","num_nodes":"31","size_leaf_vector":"1"}},{"base_weights":[-1.0654364E-2,-3.4970072E-1,6.2947655E-1,-4.2279485E-1,8.3006954E-1,-1.02680154E-1,7.158432E-1,-4.7314692E-1,4.1236556E-1,3.3194506E-1,1.1331952E0,-4.299812E-1,5.288255E-1,-1.3380447E-1,7.549741E-1,-2.5306514E-2,-1.953036E-3,4.111264E-3,3.6410954E-2,3.2427426E-2,-1.2884538E-2,5.812442E-2,1.058303E-3,-2.4413098E-2,1.4744381E-2,-2.8871978E-2,3.2812923E-2,-2.2108028E-2,2.9781276E-2,2.6454953E-2,4.190096E-2],"categories":[],"categories_nodes":[],"categories_segments":[],"categories_sizes":[],"default_left":[0,0,0,0,0,0,0,0,0,0,0,0,0,0,0,0,0,0,0,0,0,0,0,0,0,0,0,0,0,0,0],"id":33,"left_children":[1,3,5,7,9,11,13,15,17,19,21,23,25,27,29,-1,-1,-1,-1,-1,-1,-1,-1,-1,-1,-1,-1,-1,-1,-1,-1],"loss_changes":[4.5824673E2,1.1937988E2,4.6303345E1,5.488089E1,1.1834183E1,1.6352701E1,2.1847473E1,1.7547241E1,7.706545E0,6.1422644E0,1.5995407E0,2.3380537E0,4.1965714E0,6.931689E0,1.12883E1,0E0,0E0,0E0,0E0,0E0,0E0,0E0,0E0,0E0,0E0,0E0,0E0,0E0,0E0,0E0,0E0],"parents":[2147483647,0,0,1,1,2,2,3,3,4,4,5,5,6,6,7,7,8,8,9,9,10,10,11,11,12,12,13,13,14,14],"right_children":[2,4,6,8,10,12,14,16,18,20,22,24,26,28,30,-1,-1,-1,-1,-1,-1,-1,-1,-1,-1,-1,-1,-1,-1,-1,-1],"split_conditions":[1.0586003E0,7.05959E8,2.7735496E-1,5.655291E-1,1.466E9,1.4826864E0,-9.3436365E2,5.6298156E0,7.247496E-1,1.3575383E-1,1.0649405E2,1.72185E8,-3.04E8,1.4830256E0,4.0496144E-1,-2.5306514E-2,-1.953036E-3,4.111264E-3,3.6410954E-2,3.2427426E-2,-1.2884538E-2,5.812442E-2,1.058303E-3,-2.4413098E-2,1.4744381E-2,-2.8871978E-2,3.2812923E-2,-2.2108028E-2,2.9781276E-2,2.6454953E-2,4.190096E-2],"split_indices":[2,7,3,3,7,2,6,6,3,6,1,7,7,3,3,0,0,0,0,0,0,0,0,0,0,0,0,0,0,0,0],"split_type":[0,0,0,0,0,0,0,0,0,0,0,0,0,0,0,0,0,0,0,0,0,0,0,0,0,0,0,0,0,0,0],"sum_hessian":[2.1093904E3,1.3792971E3,7.300932E2,1.2994309E3,7.986622E1,7.701597E1,6.530773E2,1.2259514E3,7.347952E1,3.100726E1,4.8858963E1,5.0935757E1,2.6080212E1,2.8646997E1,6.2443024E2,1.1392234E3,8.6728004E1,3.654345E1,3.693607E1,2.0109566E1,1.0897694E1,4.756074E1,1.2982235E0,4.7447323E1,3.4884343E0,2.3291535E0,2.3751059E1,2.041196E1,8.235037E0,1.6984317E2,4.5458707E2],"tree_param":{"num_deleted":"0","num_feature":"9","num_nodes":"31","size_leaf_vector":"1"}},{"base_weights":[7.9343125E-4,1.2117144E-1,-4.072596E-1,2.548127E-1,-4.981121E-1,-5.9498525E-1,-1.8529868E-1,-3.4903732E-1,4.056351E-1,-3.4127197E-1,-6.4043236E-1,-4.5821065E-1,-6.315976E-1,-7.708005E-2,-3.5456246E-1,8.596783E-3,-2.7857894E-2,-2.9191315E-2,2.4209615E-2,-2.3445398E-2,2.2201907E-2,-3.2326255E-2,-1.67348E-2,1.5255002E-3,-2.6710942E-2,-6.3161785E-3,-3.1814195E-2,1.3454731E-3,-2.368561E-2,-2.789772E-2,-1.2384839E-3],"categories":[],"categories_nodes":[],"categories_segments":[],"categories_sizes":[],"default_left":[0,0,0,0,0,0,0,0,0,0,0,0,0,0,0,0,0,0,0,0,0,0,0,0,0,0,0,0,0,0,0],"id":34,"left_children":[1,3,5,7,9,11,13,15,17,19,21,23,25,27,29,-1,-1,-1,-1,-1,-1,-1,-1,-1,-1,-1,-1,-1,-1,-1,-1],"loss_changes":[1.04828514E2,1.3651384E2,2.0146744E1,1.236474E2,6.318123E0,1.027298E0,4.079767E0,2.9539368E1,8.466139E1,1.4386816E1,6.7466736E-2,2.214075E0,4.0450287E-1,5.706694E0,5.8331175E0,0E0,0E0,0E0,0E0,0E0,0E0,0E0,0E0,0E0,0E0,0E0,0E0,0E0,0E0,0E0,0E0],"parents":[2147483647,0,0,1,1,2,2,3,3,4,4,5,5,6,6,7,7,8,8,9,9,10,10,11,11,12,12,13,13,14,14],"right_children":[2,4,6,8,10,12,14,16,18,20,22,24,26,28,30,-1,-1,-1,-1,-1,-1,-1,-1,-1,-1,-1,-1,-1,-1,-1,-1],"split_conditions":[1.1701754E0,1.94498E0,3.982476E-1,3.1870574E-1,4.268604E0,1.455985E0,1.6765859E0,-8.2076925E-1,-2.6280982E0,8.663528E-1,8.1061945E0,1.4131442E-1,-4.28E8,3.0803E7,4.9548354E0,8.596783E-3,-2.7857894E-2,-2.9191315E-2,2.4209615E-2,-2.3445398E-2,2.2201907E-2,-3.2326255E-2,-1.67348E-2,1.5255002E-3,-2.6710942E-2,-6.3161785E-3,-3.1814195E-2,1.3454731E-3,-2.368561E-2,-2.789772E-2,-1.2384839E-3],"split_indices":[2,0,0,2,0,2,2,0,0,2,4,1,7,7,0,0,0,0,0,0,0,0,0,0,0,0,0,0,0,0,0],"split_type":[0,0,0,0,0,0,0,0,0,0,0,0,0,0,0,0,0,0,0,0,0,0,0,0,0,0,0,0,0,0,0],"sum_hessian":[2.1320999E3,1.6469447E3,4.8515515E2,1.3551024E3,2.9184222E2,2.61938E2,2.2321718E2,2.705566E2,1.0845458E3,1.4045528E2,1.5138696E2,5.816465E1,2.0377333E2,1.3704987E2,8.616732E1,7.7280304E1,1.9327629E2,7.929975E1,1.0052461E3,1.2116526E2,1.9290016E1,1.473362E2,4.050762E0,7.9090858E0,5.0255566E1,2.1294937E0,2.0164383E2,1.0932029E2,2.7729574E1,5.2869484E1,3.3297836E1],"tree_param":{"num_deleted":"0","num_feature":"9","num_nodes":"31","size_leaf_vector":"1"}},{"base_weights":[9.442115E-3,4.687135E-1,-3.431489E-1,-3.6438474E-1,6.2141716E-1,-5.663323E-1,4.6329078E-1,2.4595651E-1,-5.888389E-1,9.026322E-1,4.3640563E-1,-6.171633E-1,8.197388E-1,7.512801E-1,-3.2788214E-1,-2.9989246E-2,3.310524E-2,1.045661E-3,-3.236855E-2,4.743878E-2,-8.362529E-3,9.602084E-3,4.2730268E-2,4.4176187E-2,-3.1280722E-2,4.702496E-2,-1.570259E-2,4.1338667E-2,-9.1756955E-3,-2.6141956E-2,2.302043E-2],"categories":[],"categories_nodes":[],"categories_segments":[],"categories_sizes":[],"default_left":[0,0,0,0,0,0,0,0,0,0,0,0,0,0,0,0,0,0,0,0,0,0,0,0,0,0,0,0,0,0,0],"id":35,"left_children":[1,3,5,7,9,11,13,15,17,19,21,23,25,27,29,-1,-1,-1,-1,-1,-1,-1,-1,-1,-1,-1,-1,-1,-1,-1,-1],"loss_changes":[3.48551E2,1.19146805E2,2.194177E2,2.0067944E1,4.07265E1,6.773093E1,6.0509758E1,1.4407648E1,3.8189201E0,1.5595947E1,4.875097E1,1.2232941E1,4.9755917E0,1.3857208E1,1.1194992E1,0E0,0E0,0E0,0E0,0E0,0E0,0E0,0E0,0E0,0E0,0E0,0E0,0E0,0E0,0E0,0E0],"parents":[2147483647,0,0,1,1,2,2,3,3,4,4,5,5,6,6,7,7,8,8,9,9,10,10,11,11,12,12,13,13,14,14],"right_children":[2,4,6,8,10,12,14,16,18,20,22,24,26,28,30,-1,-1,-1,-1,-1,-1,-1,-1,-1,-1,-1,-1,-1,-1,-1,-1],"split_conditions":[8.0582166E-1,-9.500392E-1,2.0986958E0,3.197941E-2,1.2933089E-1,3.0477676E1,6.493347E-1,-2.3795235E0,7.544187E-2,5.46E8,1.3018625E0,-1.484E9,1.214317E0,1.8308467E0,8.678955E0,-2.9989246E-2,3.310524E-2,1.045661E-3,-3.236855E-2,4.743878E-2,-8.362529E-3,9.602084E-3,4.2730268E-2,4.4176187E-2,-3.1280722E-2,4.702496E-2,-1.570259E-2,4.1338667E-2,-9.1756955E-3,-2.6141956E-2,2.302043E-2],"split_indices":[2,0,0,3,3,1,3,0,2,7,0,7,2,2,0,0,0,0,0,0,0,0,0,0,0,0,0,0,0,0,0],"split_type":[0,0,0,0,0,0,0,0,0,0,0,0,0,0,0,0,0,0,0,0,0,0,0,0,0,0,0,0,0,0,0],"sum_hessian":[2.1504204E3,9.337824E2,1.2166381E3,1.4443095E2,7.8935144E2,9.531501E2,2.63488E2,3.8807858E1,1.0562309E2,3.1169717E2,4.7765427E2,9.199671E2,3.318297E1,1.9320955E2,7.027845E1,1.2652601E1,2.6155258E1,9.307352E0,9.631574E1,2.9891818E2,1.2778974E1,3.0240884E2,1.7524542E2,4.5719457E0,9.153952E2,3.0142921E1,3.0400481E0,1.7887898E2,1.433056E1,5.661371E1,1.366474E1],"tree_param":{"num_deleted":"0","num_feature":"9","num_nodes":"31","size_leaf_vector":"1"}},{"base_weights":[-5.546517E-3,-3.528892E-1,6.1992747E-1,-4.2388818E-1,8.13256E-1,-9.898861E-2,7.003831E-1,-4.7455257E-1,4.1190964E-1,3.2319677E-1,1.0942559E0,-4.4549087E-1,5.312172E-1,-2.8896851E-2,7.4516326E-1,-2.5336532E-2,-2.8780394E-3,-2.017702E-2,2.8120985E-2,-9.329735E-3,3.5714835E-2,2.0934667E-2,5.7803083E-2,-2.4543688E-2,1.0062456E-2,-2.6048943E-2,3.1383656E-2,-2.2475332E-2,2.428755E-2,2.5376797E-2,4.125598E-2],"categories":[],"categories_nodes":[],"categories_segments":[],"categories_sizes":[],"default_left":[0,0,0,0,0,0,0,0,0,0,0,0,0,0,0,0,0,0,0,0,0,0,0,0,0,0,0,0,0,0,0],"id":36,"left_children":[1,3,5,7,9,11,13,15,17,19,21,23,25,27,29,-1,-1,-1,-1,-1,-1,-1,-1,-1,-1,-1,-1,-1,-1,-1,-1],"loss_changes":[4.5006693E2,1.106228E2,4.285251E1,5.338774E1,1.0219711E1,1.668477E1,2.175E1,1.5868866E1,9.104163E0,5.995249E0,1.5360374E0,1.5412369E0,3.0853243E0,8.758731E0,1.1492096E1,0E0,0E0,0E0,0E0,0E0,0E0,0E0,0E0,0E0,0E0,0E0,0E0,0E0,0E0,0E0,0E0],"parents":[2147483647,0,0,1,1,2,2,3,3,4,4,5,5,6,6,7,7,8,8,9,9,10,10,11,11,12,12,13,13,14,14],"right_children":[2,4,6,8,10,12,14,16,18,20,22,24,26,28,30,-1,-1,-1,-1,-1,-1,-1,-1,-1,-1,-1,-1,-1,-1,-1,-1],"split_conditions":[1.0440809E0,7.05959E8,2.7735496E-1,5.655291E-1,1.466E9,1.4641876E0,-3.0671118E2,5.6298156E0,-5.2987843E0,2.7735496E-1,3.8666528E-1,1.72185E8,-3.04E8,1.1308331E0,3.4514707E-1,-2.5336532E-2,-2.8780394E-3,-2.017702E-2,2.8120985E-2,-9.329735E-3,3.5714835E-2,2.0934667E-2,5.7803083E-2,-2.4543688E-2,1.0062456E-2,-2.6048943E-2,3.1383656E-2,-2.2475332E-2,2.428755E-2,2.5376797E-2,4.125598E-2],"split_indices":[2,7,3,3,7,2,6,6,6,3,2,7,7,3,3,0,0,0,0,0,0,0,0,0,0,0,0,0,0,0,0],"split_type":[0,0,0,0,0,0,0,0,0,0,0,0,0,0,0,0,0,0,0,0,0,0,0,0,0,0,0,0,0,0,0],"sum_hessian":[2.0696108E3,1.3309397E3,7.3867114E2,1.2551578E3,7.578186E1,7.432303E1,6.6434814E2,1.1838287E3,7.132913E1,2.8401058E1,4.7380802E1,4.814491E1,2.617812E1,3.84537E1,6.258944E2,1.0988207E3,8.500801E1,1.0852128E1,6.0477E1,1.2556626E1,1.5844432E1,4.623064E0,4.2757736E1,4.521322E1,2.9316893E0,1.8286736E0,2.4349445E1,2.122972E1,1.7223984E1,1.5942798E2,4.6646643E2],"tree_param":{"num_deleted":"0","num_feature":"9","num_nodes":"31","size_leaf_vector":"1"}},{"base_weights":[-9.838274E-3,8.980649E-2,-4.5285612E-1,2.0324694E-1,-5.0136465E-1,-5.9774834E-1,-2.5732568E-2,-1.6879728E-1,3.1918555E-1,-5.56002E-1,1.1020152E-1,-1.453537E-1,-6.0986865E-1,3.6346832E-1,-3.0132082E-1,-2.6776115E-3,-2.3873694E-2,-2.7115092E-2,1.904805E-2,-1.0821791E-2,-2.8987302E-2,2.9151782E-2,-2.5697038E-2,3.144432E-2,-1.6550794E-2,-2.1815842E-2,-3.1733435E-2,2.9110163E-2,-3.0432215E-2,-2.783889E-2,-3.7722443E-3],"categories":[],"categories_nodes":[],"categories_segments":[],"categories_sizes":[],"default_left":[0,0,0,0,0,0,0,0,0,0,0,0,0,0,0,0,0,0,0,0,0,0,0,0,0,0,0,0,0,0,0],"id":37,"left_children":[1,3,5,7,9,11,13,15,17,19,21,23,25,27,29,-1,-1,-1,-1,-1,-1,-1,-1,-1,-1,-1,-1,-1,-1,-1,-1],"loss_changes":[9.386181E1,1.165162E2,2.4146584E1,6.2906494E1,9.409401E0,1.5096054E0,1.08289175E1,1.2313149E1,5.934787E1,1.946495E0,7.317157E0,1.4901628E0,9.4356537E-1,9.260155E0,3.3656273E0,0E0,0E0,0E0,0E0,0E0,0E0,0E0,0E0,0E0,0E0,0E0,0E0,0E0,0E0,0E0,0E0],"parents":[2147483647,0,0,1,1,2,2,3,3,4,4,5,5,6,6,7,7,8,8,9,9,10,10,11,11,12,12,13,13,14,14],"right_children":[2,4,6,8,10,12,14,16,18,20,22,24,26,28,30,-1,-1,-1,-1,-1,-1,-1,-1,-1,-1,-1,-1,-1,-1,-1,-1],"split_conditions":[5.655291E-1,2.0278447E0,1.3268486E0,1.3491715E-1,2.33322E8,1.5810069E-3,8.599877E-1,8.6755455E-1,-2.6280982E0,2.0783873E-1,4.0492854E0,-5.7404E7,6.493347E-1,7.8054748E0,5.7897596E0,-2.6776115E-3,-2.3873694E-2,-2.7115092E-2,1.904805E-2,-1.0821791E-2,-2.8987302E-2,2.9151782E-2,-2.5697038E-2,3.144432E-2,-1.6550794E-2,-2.1815842E-2,-3.1733435E-2,2.9110163E-2,-3.0432215E-2,-2.783889E-2,-3.7722443E-3],"split_indices":[3,0,0,3,7,1,3,0,0,1,0,7,3,0,0,0,0,0,0,0,0,0,0,0,0,0,0,0,0,0,0],"split_type":[0,0,0,0,0,0,0,0,0,0,0,0,0,0,0,0,0,0,0,0,0,0,0,0,0,0,0,0,0,0,0],"sum_hessian":[2.1243232E3,1.7349017E3,3.8942148E2,1.4561381E3,2.7876367E2,2.904823E2,9.8939186E1,3.458519E2,1.1102863E3,2.5598483E2,2.2778841E1,7.918381E0,2.825639E2,4.0883034E1,5.805615E1,2.5268492E2,9.316696E1,7.376868E1,1.0365176E3,1.7390877E1,2.3859396E2,1.2997859E1,9.780983E0,1.0698171E0,6.848564E0,3.7653786E1,2.4491013E2,3.3701057E1,7.181976E0,2.655664E1,3.149951E1],"tree_param":{"num_deleted":"0","num_feature":"9","num_nodes":"31","size_leaf_vector":"1"}},{"base_weights":[1.01196E-2,-1.9888955E-1,5.9699893E-1,4.1922215E-1,-3.7611142E-1,7.427921E-1,-2.827521E-1,-5.1975965E-1,5.3067255E-1,-4.8584148E-1,4.2095032E-1,7.9680604E-1,-2.0684412E-1,-4.3484625E-1,5.552024E-1,-3.097107E-2,4.5413695E-2,3.0421788E-2,-1.3845192E-2,-2.0007802E-2,-3.137512E-2,9.921442E-3,4.1794956E-2,1.4363912E-2,4.1762367E-2,-2.6485546E-2,3.459249E-2,-6.7808772E-3,-3.0736282E-2,4.966758E-2,-1.2991558E-2],"categories":[],"categories_nodes":[],"categories_segments":[],"categories_sizes":[],"default_left":[0,0,0,0,0,0,0,0,0,0,0,0,0,0,0,0,0,0,0,0,0,0,0,0,0,0,0,0,0,0,0],"id":38,"left_children":[1,3,5,7,9,11,13,15,17,19,21,23,25,27,29,-1,-1,-1,-1,-1,-1,-1,-1,-1,-1,-1,-1,-1,-1,-1,-1],"loss_changes":[2.5702444E2,1.6941652E2,7.078766E1,3.6356106E1,1.0527797E2,2.4391388E1,1.030352E1,5.840596E0,1.9553871E1,1.2572418E1,1.3306921E1,8.517334E0,7.9722705E0,3.5435133E0,4.7461567E0,0E0,0E0,0E0,0E0,0E0,0E0,0E0,0E0,0E0,0E0,0E0,0E0,0E0,0E0,0E0,0E0],"parents":[2147483647,0,0,1,1,2,2,3,3,4,4,5,5,6,6,7,7,8,8,9,9,10,10,11,11,12,12,13,13,14,14],"right_children":[2,4,6,8,10,12,14,16,18,20,22,24,26,28,30,-1,-1,-1,-1,-1,-1,-1,-1,-1,-1,-1,-1,-1,-1,-1,-1],"split_conditions":[1.6133909E0,1.3491715E-1,6.493347E-1,-1.9604858E0,5.231473E0,4.07073E8,9.609016E0,7.668412E1,3.5319E7,3.201318E-1,5.1306423E1,2.0783873E-1,9.193344E0,1.0274793E0,1.2325046E0,-3.097107E-2,4.5413695E-2,3.0421788E-2,-1.3845192E-2,-2.0007802E-2,-3.137512E-2,9.921442E-3,4.1794956E-2,1.4363912E-2,4.1762367E-2,-2.6485546E-2,3.459249E-2,-6.7808772E-3,-3.0736282E-2,4.966758E-2,-1.2991558E-2],"split_indices":[0,3,3,0,1,7,0,1,7,3,1,1,6,3,3,0,0,0,0,0,0,0,0,0,0,0,0,0,0,0,0],"split_type":[0,0,0,0,0,0,0,0,0,0,0,0,0,0,0,0,0,0,0,0,0,0,0,0,0,0,0,0,0,0,0],"sum_hessian":[2.0934E3,1.5441373E3,5.492626E2,3.4377133E2,1.200366E3,4.7131198E2,7.795058E1,3.6085278E1,3.0768604E2,1.055454E3,1.4491202E2,4.4609943E2,2.5212543E1,6.6382744E1,1.1567835E1,3.4260494E1,1.8247823E0,2.808856E2,2.6800457E1,6.600432E2,3.954108E2,9.528985E1,4.9622173E1,3.1889362E1,4.1421008E2,1.8850756E1,6.3617873E0,2.558167E1,4.0801075E1,7.3810906E0,4.1867437E0],"tree_param":{"num_deleted":"0","num_feature":"9","num_nodes":"31","size_leaf_vector":"1"}},{"base_weights":[-6.9202487E-3,-3.0819523E-1,6.515458E-1,6.2855834E-1,-4.3386787E-1,7.62246E-1,3.0077463E-2,1.2384281E-1,8.732726E-1,-5.081807E-1,8.362013E-1,1.3126744E-1,8.075117E-1,-4.0764475E-1,6.452209E-1,2.413871E-2,-1.8260874E-2,-1.5072072E-2,4.5066603E-2,-2.9637758E-2,2.1391056E-2,1.5481847E-2,5.5647135E-2,-2.9787946E-2,3.1012887E-2,-2.2067886E-2,4.079163E-2,-2.943178E-2,1.7410534E-2,4.29192E-2,-1.992953E-3],"categories":[],"categories_nodes":[],"categories_segments":[],"categories_sizes":[],"default_left":[0,0,0,0,0,0,0,0,0,0,0,0,0,0,0,0,0,0,0,0,0,0,0,0,0,0,0,0,0,0,0],"id":39,"left_children":[1,3,5,7,9,11,13,15,17,19,21,23,25,27,29,-1,-1,-1,-1,-1,-1,-1,-1,-1,-1,-1,-1,-1,-1,-1,-1],"loss_changes":[3.9885895E2,1.6266425E2,4.3398224E1,2.0095543E1,1.1527362E2,1.5194061E1,2.6238207E1,9.757066E0,3.8974686E0,9.130588E1,9.512169E0,1.3541545E1,5.5520935E0,7.999305E0,5.947584E0,0E0,0E0,0E0,0E0,0E0,0E0,0E0,0E0,0E0,0E0,0E0,0E0,0E0,0E0,0E0,0E0],"parents":[2147483647,0,0,1,1,2,2,3,3,4,4,5,5,6,6,7,7,8,8,9,9,10,10,11,11,12,12,13,13,14,14],"right_children":[2,4,6,8,10,12,14,16,18,20,22,24,26,28,30,-1,-1,-1,-1,-1,-1,-1,-1,-1,-1,-1,-1,-1,-1,-1,-1],"split_conditions":[1.1701754E0,-1.6381739E0,2.7796474E0,5.901202E-1,7.05959E8,2.2625045E-1,1.1308331E0,-2.8327558E0,-2.01683E8,5.655291E-1,1.466E9,1.4169093E0,-7.0029644E3,2.1791918E0,8.484065E0,2.413871E-2,-1.8260874E-2,-1.5072072E-2,4.5066603E-2,-2.9637758E-2,2.1391056E-2,1.5481847E-2,5.5647135E-2,-2.9787946E-2,3.1012887E-2,-2.2067886E-2,4.079163E-2,-2.943178E-2,1.7410534E-2,4.29192E-2,-1.992953E-3],"split_indices":[2,0,0,2,7,3,3,0,7,3,7,2,4,2,0,0,0,0,0,0,0,0,0,0,0,0,0,0,0,0,0],"split_type":[0,0,0,0,0,0,0,0,0,0,0,0,0,0,0,0,0,0,0,0,0,0,0,0,0,0,0,0,0,0,0],"sum_hessian":[2.0085747E3,1.3784225E3,6.301523E2,1.6257797E2,1.2158445E3,5.346842E2,9.5468094E1,5.3579014E1,1.0899896E2,1.1492035E3,6.664095E1,3.6051178E1,4.9863303E2,5.597492E1,3.9493176E1,3.0907917E1,2.2671099E1,2.3155355E0,1.06683426E2,1.054306E3,9.489743E1,2.3687977E1,4.295298E1,1.44092655E1,2.1641912E1,2.9558163E0,4.9567722E2,4.5339523E1,1.0635394E1,2.9928068E1,9.565106E0],"tree_param":{"num_deleted":"0","num_feature":"9","num_nodes":"31","size_leaf_vector":"1"}},{"base_weights":[-3.876273E-3,9.75269E-2,-4.6403039E-1,2.044104E-1,-4.8670885E-1,-5.921979E-1,-1.2150403E-1,-3.4622702E-1,3.3325455E-1,-5.4657245E-1,2.610087E-1,2.942553E-1,-6.1769944E-1,9.081587E-2,-4.0010005E-1,2.2770748E-2,-2.2936998E-2,-3.1026239E-2,2.0403752E-2,-3.0110085E-2,-1.036938E-3,3.797881E-2,-2.5242237E-2,4.4479214E-2,-9.150261E-3,8.69611E-3,-3.1067112E-2,1.1221505E-2,-2.3555644E-2,-3.0201722E-2,-9.494625E-4],"categories":[],"categories_nodes":[],"categories_segments":[],"categories_sizes":[],"default_left":[0,0,0,0,0,0,0,0,0,0,0,0,0,0,0,0,0,0,0,0,0,0,0,0,0,0,0,0,0,0,0],"id":40,"left_children":[1,3,5,7,9,11,13,15,17,19,21,23,25,27,29,-1,-1,-1,-1,-1,-1,-1,-1,-1,-1,-1,-1,-1,-1,-1,-1],"loss_changes":[9.8294395E1,1.07892334E2,1.6627472E1,1.0369304E2,1.2105381E1,6.433525E0,6.237571E0,2.5222408E1,8.4718704E1,7.235199E0,8.206317E0,2.552531E0,8.8420105E-1,4.633907E0,3.5269237E0,0E0,0E0,0E0,0E0,0E0,0E0,0E0,0E0,0E0,0E0,0E0,0E0,0E0,0E0,0E0,0E0],"parents":[2147483647,0,0,1,1,2,2,3,3,4,4,5,5,6,6,7,7,8,8,9,9,10,10,11,11,12,12,13,13,14,14],"right_children":[2,4,6,8,10,12,14,16,18,20,22,24,26,28,30,-1,-1,-1,-1,-1,-1,-1,-1,-1,-1,-1,-1,-1,-1,-1,-1],"split_conditions":[1.3478243E0,2.17575E0,8.927217E-1,3.1870574E-1,6.8515545E-1,5.909629E-2,9.096486E-1,-1.4857658E0,-2.6280982E0,2.13771E8,7.28853E0,1.5038248E0,-7.2384143E2,7.8054748E0,7.28853E0,2.2770748E-2,-2.2936998E-2,-3.1026239E-2,2.0403752E-2,-3.0110085E-2,-1.036938E-3,3.797881E-2,-2.5242237E-2,4.4479214E-2,-9.150261E-3,8.69611E-3,-3.1067112E-2,1.1221505E-2,-2.3555644E-2,-3.0201722E-2,-9.494625E-4],"split_indices":[2,0,0,2,3,3,3,0,0,7,0,2,5,0,0,0,0,0,0,0,0,0,0,0,0,0,0,0,0,0,0],"split_type":[0,0,0,0,0,0,0,0,0,0,0,0,0,0,0,0,0,0,0,0,0,0,0,0,0,0,0,0,0,0,0],"sum_hessian":[2.1045903E3,1.7251998E3,3.7939053E2,1.4589425E3,2.6625735E2,2.7555402E2,1.0383652E2,2.7632654E2,1.182616E3,2.4676956E2,1.9487799E1,7.410791E0,2.6814322E2,5.9309994E1,4.4526524E1,3.3634792E1,2.4269176E2,8.5493126E1,1.0971228E3,2.230295E2,2.3740065E1,1.1808627E1,7.679172E0,2.9130943E0,4.4976964E0,1.0141451E0,2.671291E2,4.840174E1,1.0908255E1,2.8624483E1,1.5902039E1],"tree_param":{"num_deleted":"0","num_feature":"9","num_nodes":"31","size_leaf_vector":"1"}},{"base_weights":[8.336034E-3,-1.8854503E-1,5.773959E-1,-3.46929E-1,3.5639885E-1,-3.782629E-3,6.568238E-1,-4.701557E-1,-1.7707849E-1,7.207296E-1,1.336436E-1,-1.5639186E-1,5.6757987E-1,6.8509215E-1,-5.803456E-1,1.0138015E-2,-2.4146741E-2,-2.4424113E-2,-2.123881E-3,3.984627E-2,-1.7330356E-2,7.7430345E-4,3.6404908E-2,-2.218355E-2,-1.687667E-3,-2.2600828E-2,3.5704065E-2,2.7535915E-2,3.9943654E-2,-3.223508E-2,-4.4321464E-3],"categories":[],"categories_nodes":[],"categories_segments":[],"categories_sizes":[],"default_left":[0,0,0,0,0,0,0,0,0,0,0,0,0,0,0,0,0,0,0,0,0,0,0,0,0,0,0,0,0,0,0],"id":41,"left_children":[1,3,5,7,9,11,13,15,17,19,21,23,25,27,29,-1,-1,-1,-1,-1,-1,-1,-1,-1,-1,-1,-1,-1,-1,-1,-1],"loss_changes":[2.3377495E2,1.3392815E2,2.4760971E1,2.5067825E1,2.8276215E1,5.7984157E0,1.6899872E1,6.0813904E0,2.1224215E1,1.1045509E1,1.5313671E1,1.8333442E0,2.4168425E0,6.6202545E0,2.9353714E-1,0E0,0E0,0E0,0E0,0E0,0E0,0E0,0E0,0E0,0E0,0E0,0E0,0E0,0E0,0E0,0E0],"parents":[2147483647,0,0,1,1,2,2,3,3,4,4,5,5,6,6,7,7,8,8,9,9,10,10,11,11,12,12,13,13,14,14],"right_children":[2,4,6,8,10,12,14,16,18,20,22,24,26,28,30,-1,-1,-1,-1,-1,-1,-1,-1,-1,-1,-1,-1,-1,-1,-1,-1],"split_conditions":[1.6844168E0,2.363938E0,2.5479025E-1,6.074109E-1,-3.4334192E0,8.678955E0,1.466E9,-5.210345E2,-7.173687E-1,4.747503E0,3.0477676E1,-4.5204777E-1,-5.1747E7,4.268604E0,3.9738638E0,1.0138015E-2,-2.4146741E-2,-2.4424113E-2,-2.123881E-3,3.984627E-2,-1.7330356E-2,7.7430345E-4,3.6404908E-2,-2.218355E-2,-1.687667E-3,-2.2600828E-2,3.5704065E-2,2.7535915E-2,3.9943654E-2,-3.223508E-2,-4.4321464E-3],"split_indices":[0,1,1,1,5,0,7,4,0,6,1,5,7,0,6,0,0,0,0,0,0,0,0,0,0,0,0,0,0,0,0],"split_type":[0,0,0,0,0,0,0,0,0,0,0,0,0,0,0,0,0,0,0,0,0,0,0,0,0,0,0,0,0,0,0],"sum_hessian":[2.084613E3,1.5492711E3,5.35342E2,1.2006688E3,3.486023E2,6.4481255E1,4.7086072E2,6.9481323E2,5.058556E2,1.314203E2,2.1718199E2,5.146215E1,1.3019104E1,4.6077853E2,1.0082191E1,1.267197E1,6.8214124E2,1.5187E2,3.539856E2,1.2289999E2,8.520324E0,1.8202718E2,3.5154816E1,1.4613201E1,3.684895E1,1.3736427E0,1.1645462E1,2.1394833E2,2.468302E2,8.640169E0,1.4420216E0],"tree_param":{"num_deleted":"0","num_feature":"9","num_nodes":"31","size_leaf_vector":"1"}},{"base_weights":[-1.2213625E-2,-3.3446395E-1,5.6339395E-1,6.002508E-1,-4.6376607E-1,7.16998E-1,4.5106735E-2,1.1428282E-1,8.425125E-1,-5.4097146E-1,7.474902E-1,4.6301386E-1,8.0523646E-1,-3.1014252E-1,5.2440894E-1,3.2222353E-2,-1.7195804E-2,-1.5055701E-2,4.3560326E-2,-2.9145274E-2,-5.882218E-3,4.5455303E-2,-1.0948627E-2,3.8295206E-2,1.2485105E-2,-8.634907E-3,4.0457442E-2,-3.4358029E-3,-2.9779464E-2,3.8016345E-2,1.056184E-3],"categories":[],"categories_nodes":[],"categories_segments":[],"categories_sizes":[],"default_left":[0,0,0,0,0,0,0,0,0,0,0,0,0,0,0,0,0,0,0,0,0,0,0,0,0,0,0,0,0,0,0],"id":42,"left_children":[1,3,5,7,9,11,13,15,17,19,21,23,25,27,29,-1,-1,-1,-1,-1,-1,-1,-1,-1,-1,-1,-1,-1,-1,-1,-1],"loss_changes":[3.7300363E2,1.5608603E2,5.742653E1,1.8398964E1,1.0636264E2,1.2102936E1,2.8439411E1,1.3198144E1,3.69738E0,1.885025E1,1.0869293E1,9.234453E0,1.715271E0,6.575223E0,8.421553E0,0E0,0E0,0E0,0E0,0E0,0E0,0E0,0E0,0E0,0E0,0E0,0E0,0E0,0E0,0E0,0E0],"parents":[2147483647,0,0,1,1,2,2,3,3,4,4,5,5,6,6,7,7,8,8,9,9,10,10,11,11,12,12,13,13,14,14],"right_children":[2,4,6,8,10,12,14,16,18,20,22,24,26,28,30,-1,-1,-1,-1,-1,-1,-1,-1,-1,-1,-1,-1,-1,-1,-1,-1],"split_conditions":[1.0586003E0,-1.6381739E0,1.0060612E0,5.9867144E-1,7.05959E8,1.3134345E0,1.6765859E0,-3.5859234E0,-2.01683E8,9.3427837E-1,2.5204315E0,2.8692508E-1,-1.484E9,4.80333E0,6.256923E0,3.2222353E-2,-1.7195804E-2,-1.5055701E-2,4.3560326E-2,-2.9145274E-2,-5.882218E-3,4.5455303E-2,-1.0948627E-2,3.8295206E-2,1.2485105E-2,-8.634907E-3,4.0457442E-2,-3.4358029E-3,-2.9779464E-2,3.8016345E-2,1.056184E-3],"split_indices":[2,0,0,2,7,2,2,0,7,2,0,0,7,0,0,0,0,0,0,0,0,0,0,0,0,0,0,0,0,0,0],"split_type":[0,0,0,0,0,0,0,0,0,0,0,0,0,0,0,0,0,0,0,0,0,0,0,0,0,0,0,0,0,0,0],"sum_hessian":[2.0088967E3,1.2881519E3,7.2074493E2,1.5609697E2,1.1320549E3,5.5567645E2,1.6506847E2,5.241871E1,1.0367825E2,1.0647417E3,6.7313194E1,1.4488605E2,4.107904E2,9.500533E1,7.006313E1,2.4112543E1,2.8306168E1,2.3052816E0,1.0137297E2,9.6843353E2,9.6308174E1,5.7720314E1,9.592876E0,5.8801216E1,8.608484E1,1.4649843E0,4.093254E2,5.214372E1,4.2861618E1,4.7354637E1,2.2708496E1],"tree_param":{"num_deleted":"0","num_feature":"9","num_nodes":"31","size_leaf_vector":"1"}},{"base_weights":[3.3649802E-4,9.796272E-2,-4.6255344E-1,2.0107374E-1,-4.61102E-1,-5.683583E-1,-5.825884E-2,-4.5692888E-1,3.063727E-1,-5.421718E-1,1.7384103E-1,1.02970935E-1,-5.9431624E-1,1.656982E-1,-3.2192767E-1,1.8843727E-2,-2.7005354E-2,1.8611258E-2,-2.29872E-2,-3.0248566E-2,1.8505864E-3,2.4731543E-2,-2.6026873E-2,4.445331E-2,-1.6951172E-2,-3.0510414E-2,-1.8709525E-2,2.5303984E-2,-2.0262841E-2,-2.8903304E-2,1.3612794E-3],"categories":[],"categories_nodes":[],"categories_segments":[],"categories_sizes":[],"default_left":[0,0,0,0,0,0,0,0,0,0,0,0,0,0,0,0,0,0,0,0,0,0,0,0,0,0,0,0,0,0,0],"id":43,"left_children":[1,3,5,7,9,11,13,15,17,19,21,23,25,27,29,-1,-1,-1,-1,-1,-1,-1,-1,-1,-1,-1,-1,-1,-1,-1,-1],"loss_changes":[9.407284E1,9.9193275E1,1.547654E1,1.00753845E2,1.3889412E1,5.0670166E0,4.5600553E0,1.4124744E1,6.3355843E1,8.6753235E0,7.185228E0,4.313075E0,7.396622E-1,8.35343E0,3.1808937E0,0E0,0E0,0E0,0E0,0E0,0E0,0E0,0E0,0E0,0E0,0E0,0E0,0E0,0E0,0E0,0E0],"parents":[2147483647,0,0,1,1,2,2,3,3,4,4,5,5,6,6,7,7,8,8,9,9,10,10,11,11,12,12,13,13,14,14],"right_children":[2,4,6,8,10,12,14,16,18,20,22,24,26,28,30,-1,-1,-1,-1,-1,-1,-1,-1,-1,-1,-1,-1,-1,-1,-1,-1],"split_conditions":[1.3478243E0,2.17575E0,2.0278447E0,1.9781947E-1,5.731183E-1,5.909629E-2,8.8734764E-1,-1.5951843E0,5.8956504E-1,2.13771E8,7.28853E0,1.5038248E0,8.6755455E-1,6.7376695E0,7.28853E0,1.8843727E-2,-2.7005354E-2,1.8611258E-2,-2.29872E-2,-3.0248566E-2,1.8505864E-3,2.4731543E-2,-2.6026873E-2,4.445331E-2,-1.6951172E-2,-3.0510414E-2,-1.8709525E-2,2.5303984E-2,-2.0262841E-2,-2.8903304E-2,1.3612794E-3],"split_indices":[2,0,0,2,3,3,3,0,3,7,0,2,0,0,0,0,0,0,0,0,0,0,0,0,0,0,0,0,0,0,0],"split_type":[0,0,0,0,0,0,0,0,0,0,0,0,0,0,0,0,0,0,0,0,0,0,0,0,0,0,0,0,0,0,0],"sum_hessian":[2.0797063E3,1.7181307E3,3.6157556E2,1.4511318E3,2.6699893E2,2.862559E2,7.531966E1,1.9972585E2,1.251406E3,2.3689784E2,3.0101095E1,1.054602E1,2.7570987E2,4.0927723E1,3.4391933E1,1.779658E1,1.8192926E2,1.1528275E3,9.8578514E1,2.1368405E2,2.321379E1,2.078601E1,9.3150835E0,3.4315162E0,7.114503E0,2.5549246E2,2.0217417E1,2.5712526E1,1.5215196E1,1.9460276E1,1.4931658E1],"tree_param":{"num_deleted":"0","num_feature":"9","num_nodes":"31","size_leaf_vector":"1"}},{"base_weights":[1.0351217E-2,5.0344664E-1,-2.961723E-1,-2.951755E-1,6.394201E-1,-5.0610155E-1,4.3099484E-1,2.5601667E-1,-5.3376776E-1,7.515734E-1,3.6207396E-1,-5.57958E-1,8.0187434E-1,7.2664434E-1,-2.1898757E-1,-1.3494687E-2,3.243394E-2,-2.987195E-2,3.1693652E-2,3.8523294E-2,-2.7626378E-2,-1.6358335E-2,3.5101708E-2,-6.129235E-3,-3.046677E-2,-2.269776E-3,4.520247E-2,3.852733E-2,-3.1788852E-2,-3.02548E-2,1.1268617E-2],"categories":[],"categories_nodes":[],"categories_segments":[],"categories_sizes":[],"default_left":[0,0,0,0,0,0,0,0,0,0,0,0,0,0,0,0,0,0,0,0,0,0,0,0,0,0,0,0,0,0,0],"id":44,"left_children":[1,3,5,7,9,11,13,15,17,19,21,23,25,27,29,-1,-1,-1,-1,-1,-1,-1,-1,-1,-1,-1,-1,-1,-1,-1,-1],"loss_changes":[3.1163647E2,8.601604E1,1.9431381E2,1.5348995E1,2.0745514E1,6.7399414E1,5.499931E1,7.5309477E0,6.404627E0,1.2256836E1,4.627026E1,2.11763E1,3.335266E0,1.223642E1,1.5576238E1,0E0,0E0,0E0,0E0,0E0,0E0,0E0,0E0,0E0,0E0,0E0,0E0,0E0,0E0,0E0,0E0],"parents":[2147483647,0,0,1,1,2,2,3,3,4,4,5,5,6,6,7,7,8,8,9,9,10,10,11,11,12,12,13,13,14,14],"right_children":[2,4,6,8,10,12,14,16,18,20,22,24,26,28,30,-1,-1,-1,-1,-1,-1,-1,-1,-1,-1,-1,-1,-1,-1,-1,-1],"split_conditions":[7.052668E-1,-9.8441553E-1,2.0278447E0,1.9127318E-1,4.3769166E-1,3.0477676E1,1.3134345E0,-1.8255582E0,